elements: [In, P] 
E0: [-4.572288, 1.154143] 
deltaSplineBins: 0.001000 
embeddings:
  0: {ndensity: 1, FS_parameters: [1.0, 1.0], npoti: FinnisSinclair, rho_core_cutoff: 100000, drho_core_cutoff: 250}
  1: {ndensity: 1, FS_parameters: [1.0, 1.0], npoti: FinnisSinclair, rho_core_cutoff: 100000, drho_core_cutoff: 250}
bonds:
  [0, 0]: {nradmax: 22, lmax: 2, nradbasemax: 22, radbasename: ChebExpCos, radparameters: [1.737], radcoefficients: [[[1, 0, 0, 0, 0, 0, 0, 0, 0, 0, 0, 0, 0, 0, 0, 0, 0, 0, 0, 0, 0, 0], [1, 0, 0, 0, 0, 0, 0, 0, 0, 0, 0, 0, 0, 0, 0, 0, 0, 0, 0, 0, 0, 0], [1, 0, 0, 0, 0, 0, 0, 0, 0, 0, 0, 0, 0, 0, 0, 0, 0, 0, 0, 0, 0, 0]], [[0, 1, 0, 0, 0, 0, 0, 0, 0, 0, 0, 0, 0, 0, 0, 0, 0, 0, 0, 0, 0, 0], [0, 1, 0, 0, 0, 0, 0, 0, 0, 0, 0, 0, 0, 0, 0, 0, 0, 0, 0, 0, 0, 0], [0, 1, 0, 0, 0, 0, 0, 0, 0, 0, 0, 0, 0, 0, 0, 0, 0, 0, 0, 0, 0, 0]], [[0, 0, 1, 0, 0, 0, 0, 0, 0, 0, 0, 0, 0, 0, 0, 0, 0, 0, 0, 0, 0, 0], [0, 0, 1, 0, 0, 0, 0, 0, 0, 0, 0, 0, 0, 0, 0, 0, 0, 0, 0, 0, 0, 0], [0, 0, 1, 0, 0, 0, 0, 0, 0, 0, 0, 0, 0, 0, 0, 0, 0, 0, 0, 0, 0, 0]], [[0, 0, 0, 1, 0, 0, 0, 0, 0, 0, 0, 0, 0, 0, 0, 0, 0, 0, 0, 0, 0, 0], [0, 0, 0, 1, 0, 0, 0, 0, 0, 0, 0, 0, 0, 0, 0, 0, 0, 0, 0, 0, 0, 0], [0, 0, 0, 1, 0, 0, 0, 0, 0, 0, 0, 0, 0, 0, 0, 0, 0, 0, 0, 0, 0, 0]], [[0, 0, 0, 0, 1, 0, 0, 0, 0, 0, 0, 0, 0, 0, 0, 0, 0, 0, 0, 0, 0, 0], [0, 0, 0, 0, 1, 0, 0, 0, 0, 0, 0, 0, 0, 0, 0, 0, 0, 0, 0, 0, 0, 0], [0, 0, 0, 0, 1, 0, 0, 0, 0, 0, 0, 0, 0, 0, 0, 0, 0, 0, 0, 0, 0, 0]], [[0, 0, 0, 0, 0, 1, 0, 0, 0, 0, 0, 0, 0, 0, 0, 0, 0, 0, 0, 0, 0, 0], [0, 0, 0, 0, 0, 1, 0, 0, 0, 0, 0, 0, 0, 0, 0, 0, 0, 0, 0, 0, 0, 0], [0, 0, 0, 0, 0, 1, 0, 0, 0, 0, 0, 0, 0, 0, 0, 0, 0, 0, 0, 0, 0, 0]], [[0, 0, 0, 0, 0, 0, 1, 0, 0, 0, 0, 0, 0, 0, 0, 0, 0, 0, 0, 0, 0, 0], [0, 0, 0, 0, 0, 0, 1, 0, 0, 0, 0, 0, 0, 0, 0, 0, 0, 0, 0, 0, 0, 0], [0, 0, 0, 0, 0, 0, 1, 0, 0, 0, 0, 0, 0, 0, 0, 0, 0, 0, 0, 0, 0, 0]], [[0, 0, 0, 0, 0, 0, 0, 1, 0, 0, 0, 0, 0, 0, 0, 0, 0, 0, 0, 0, 0, 0], [0, 0, 0, 0, 0, 0, 0, 1, 0, 0, 0, 0, 0, 0, 0, 0, 0, 0, 0, 0, 0, 0], [0, 0, 0, 0, 0, 0, 0, 1, 0, 0, 0, 0, 0, 0, 0, 0, 0, 0, 0, 0, 0, 0]], [[0, 0, 0, 0, 0, 0, 0, 0, 1, 0, 0, 0, 0, 0, 0, 0, 0, 0, 0, 0, 0, 0], [0, 0, 0, 0, 0, 0, 0, 0, 1, 0, 0, 0, 0, 0, 0, 0, 0, 0, 0, 0, 0, 0], [0, 0, 0, 0, 0, 0, 0, 0, 1, 0, 0, 0, 0, 0, 0, 0, 0, 0, 0, 0, 0, 0]], [[0, 0, 0, 0, 0, 0, 0, 0, 0, 1, 0, 0, 0, 0, 0, 0, 0, 0, 0, 0, 0, 0], [0, 0, 0, 0, 0, 0, 0, 0, 0, 1, 0, 0, 0, 0, 0, 0, 0, 0, 0, 0, 0, 0], [0, 0, 0, 0, 0, 0, 0, 0, 0, 1, 0, 0, 0, 0, 0, 0, 0, 0, 0, 0, 0, 0]], [[0, 0, 0, 0, 0, 0, 0, 0, 0, 0, 1, 0, 0, 0, 0, 0, 0, 0, 0, 0, 0, 0], [0, 0, 0, 0, 0, 0, 0, 0, 0, 0, 1, 0, 0, 0, 0, 0, 0, 0, 0, 0, 0, 0], [0, 0, 0, 0, 0, 0, 0, 0, 0, 0, 1, 0, 0, 0, 0, 0, 0, 0, 0, 0, 0, 0]], [[0, 0, 0, 0, 0, 0, 0, 0, 0, 0, 0, 1, 0, 0, 0, 0, 0, 0, 0, 0, 0, 0], [0, 0, 0, 0, 0, 0, 0, 0, 0, 0, 0, 1, 0, 0, 0, 0, 0, 0, 0, 0, 0, 0], [0, 0, 0, 0, 0, 0, 0, 0, 0, 0, 0, 1, 0, 0, 0, 0, 0, 0, 0, 0, 0, 0]], [[0, 0, 0, 0, 0, 0, 0, 0, 0, 0, 0, 0, 1, 0, 0, 0, 0, 0, 0, 0, 0, 0], [0, 0, 0, 0, 0, 0, 0, 0, 0, 0, 0, 0, 1, 0, 0, 0, 0, 0, 0, 0, 0, 0], [0, 0, 0, 0, 0, 0, 0, 0, 0, 0, 0, 0, 1, 0, 0, 0, 0, 0, 0, 0, 0, 0]], [[0, 0, 0, 0, 0, 0, 0, 0, 0, 0, 0, 0, 0, 1, 0, 0, 0, 0, 0, 0, 0, 0], [0, 0, 0, 0, 0, 0, 0, 0, 0, 0, 0, 0, 0, 1, 0, 0, 0, 0, 0, 0, 0, 0], [0, 0, 0, 0, 0, 0, 0, 0, 0, 0, 0, 0, 0, 1, 0, 0, 0, 0, 0, 0, 0, 0]], [[0, 0, 0, 0, 0, 0, 0, 0, 0, 0, 0, 0, 0, 0, 1, 0, 0, 0, 0, 0, 0, 0], [0, 0, 0, 0, 0, 0, 0, 0, 0, 0, 0, 0, 0, 0, 1, 0, 0, 0, 0, 0, 0, 0], [0, 0, 0, 0, 0, 0, 0, 0, 0, 0, 0, 0, 0, 0, 1, 0, 0, 0, 0, 0, 0, 0]], [[0, 0, 0, 0, 0, 0, 0, 0, 0, 0, 0, 0, 0, 0, 0, 1, 0, 0, 0, 0, 0, 0], [0, 0, 0, 0, 0, 0, 0, 0, 0, 0, 0, 0, 0, 0, 0, 1, 0, 0, 0, 0, 0, 0], [0, 0, 0, 0, 0, 0, 0, 0, 0, 0, 0, 0, 0, 0, 0, 1, 0, 0, 0, 0, 0, 0]], [[0, 0, 0, 0, 0, 0, 0, 0, 0, 0, 0, 0, 0, 0, 0, 0, 1, 0, 0, 0, 0, 0], [0, 0, 0, 0, 0, 0, 0, 0, 0, 0, 0, 0, 0, 0, 0, 0, 1, 0, 0, 0, 0, 0], [0, 0, 0, 0, 0, 0, 0, 0, 0, 0, 0, 0, 0, 0, 0, 0, 1, 0, 0, 0, 0, 0]], [[0, 0, 0, 0, 0, 0, 0, 0, 0, 0, 0, 0, 0, 0, 0, 0, 0, 1, 0, 0, 0, 0], [0, 0, 0, 0, 0, 0, 0, 0, 0, 0, 0, 0, 0, 0, 0, 0, 0, 1, 0, 0, 0, 0], [0, 0, 0, 0, 0, 0, 0, 0, 0, 0, 0, 0, 0, 0, 0, 0, 0, 1, 0, 0, 0, 0]], [[0, 0, 0, 0, 0, 0, 0, 0, 0, 0, 0, 0, 0, 0, 0, 0, 0, 0, 1, 0, 0, 0], [0, 0, 0, 0, 0, 0, 0, 0, 0, 0, 0, 0, 0, 0, 0, 0, 0, 0, 1, 0, 0, 0], [0, 0, 0, 0, 0, 0, 0, 0, 0, 0, 0, 0, 0, 0, 0, 0, 0, 0, 1, 0, 0, 0]], [[0, 0, 0, 0, 0, 0, 0, 0, 0, 0, 0, 0, 0, 0, 0, 0, 0, 0, 0, 1, 0, 0], [0, 0, 0, 0, 0, 0, 0, 0, 0, 0, 0, 0, 0, 0, 0, 0, 0, 0, 0, 1, 0, 0], [0, 0, 0, 0, 0, 0, 0, 0, 0, 0, 0, 0, 0, 0, 0, 0, 0, 0, 0, 1, 0, 0]], [[0, 0, 0, 0, 0, 0, 0, 0, 0, 0, 0, 0, 0, 0, 0, 0, 0, 0, 0, 0, 1, 0], [0, 0, 0, 0, 0, 0, 0, 0, 0, 0, 0, 0, 0, 0, 0, 0, 0, 0, 0, 0, 1, 0], [0, 0, 0, 0, 0, 0, 0, 0, 0, 0, 0, 0, 0, 0, 0, 0, 0, 0, 0, 0, 1, 0]], [[0, 0, 0, 0, 0, 0, 0, 0, 0, 0, 0, 0, 0, 0, 0, 0, 0, 0, 0, 0, 0, 1], [0, 0, 0, 0, 0, 0, 0, 0, 0, 0, 0, 0, 0, 0, 0, 0, 0, 0, 0, 0, 0, 1], [0, 0, 0, 0, 0, 0, 0, 0, 0, 0, 0, 0, 0, 0, 0, 0, 0, 0, 0, 0, 0, 1]]], prehc: 0, lambdahc: 1.737, rcut: 5.790, dcut: 0.01, rcut_in: 1.705, dcut_in: 0.01, inner_cutoff_type: distance}
  [0, 1]: {nradmax: 22, lmax: 2, nradbasemax: 22, radbasename: ChebExpCos, radparameters: [1.502], radcoefficients: [[[1, 0, 0, 0, 0, 0, 0, 0, 0, 0, 0, 0, 0, 0, 0, 0, 0, 0, 0, 0, 0, 0], [1, 0, 0, 0, 0, 0, 0, 0, 0, 0, 0, 0, 0, 0, 0, 0, 0, 0, 0, 0, 0, 0], [1, 0, 0, 0, 0, 0, 0, 0, 0, 0, 0, 0, 0, 0, 0, 0, 0, 0, 0, 0, 0, 0]], [[0, 1, 0, 0, 0, 0, 0, 0, 0, 0, 0, 0, 0, 0, 0, 0, 0, 0, 0, 0, 0, 0], [0, 1, 0, 0, 0, 0, 0, 0, 0, 0, 0, 0, 0, 0, 0, 0, 0, 0, 0, 0, 0, 0], [0, 1, 0, 0, 0, 0, 0, 0, 0, 0, 0, 0, 0, 0, 0, 0, 0, 0, 0, 0, 0, 0]], [[0, 0, 1, 0, 0, 0, 0, 0, 0, 0, 0, 0, 0, 0, 0, 0, 0, 0, 0, 0, 0, 0], [0, 0, 1, 0, 0, 0, 0, 0, 0, 0, 0, 0, 0, 0, 0, 0, 0, 0, 0, 0, 0, 0], [0, 0, 1, 0, 0, 0, 0, 0, 0, 0, 0, 0, 0, 0, 0, 0, 0, 0, 0, 0, 0, 0]], [[0, 0, 0, 1, 0, 0, 0, 0, 0, 0, 0, 0, 0, 0, 0, 0, 0, 0, 0, 0, 0, 0], [0, 0, 0, 1, 0, 0, 0, 0, 0, 0, 0, 0, 0, 0, 0, 0, 0, 0, 0, 0, 0, 0], [0, 0, 0, 1, 0, 0, 0, 0, 0, 0, 0, 0, 0, 0, 0, 0, 0, 0, 0, 0, 0, 0]], [[0, 0, 0, 0, 1, 0, 0, 0, 0, 0, 0, 0, 0, 0, 0, 0, 0, 0, 0, 0, 0, 0], [0, 0, 0, 0, 1, 0, 0, 0, 0, 0, 0, 0, 0, 0, 0, 0, 0, 0, 0, 0, 0, 0], [0, 0, 0, 0, 1, 0, 0, 0, 0, 0, 0, 0, 0, 0, 0, 0, 0, 0, 0, 0, 0, 0]], [[0, 0, 0, 0, 0, 1, 0, 0, 0, 0, 0, 0, 0, 0, 0, 0, 0, 0, 0, 0, 0, 0], [0, 0, 0, 0, 0, 1, 0, 0, 0, 0, 0, 0, 0, 0, 0, 0, 0, 0, 0, 0, 0, 0], [0, 0, 0, 0, 0, 1, 0, 0, 0, 0, 0, 0, 0, 0, 0, 0, 0, 0, 0, 0, 0, 0]], [[0, 0, 0, 0, 0, 0, 1, 0, 0, 0, 0, 0, 0, 0, 0, 0, 0, 0, 0, 0, 0, 0], [0, 0, 0, 0, 0, 0, 1, 0, 0, 0, 0, 0, 0, 0, 0, 0, 0, 0, 0, 0, 0, 0], [0, 0, 0, 0, 0, 0, 1, 0, 0, 0, 0, 0, 0, 0, 0, 0, 0, 0, 0, 0, 0, 0]], [[0, 0, 0, 0, 0, 0, 0, 1, 0, 0, 0, 0, 0, 0, 0, 0, 0, 0, 0, 0, 0, 0], [0, 0, 0, 0, 0, 0, 0, 1, 0, 0, 0, 0, 0, 0, 0, 0, 0, 0, 0, 0, 0, 0], [0, 0, 0, 0, 0, 0, 0, 1, 0, 0, 0, 0, 0, 0, 0, 0, 0, 0, 0, 0, 0, 0]], [[0, 0, 0, 0, 0, 0, 0, 0, 1, 0, 0, 0, 0, 0, 0, 0, 0, 0, 0, 0, 0, 0], [0, 0, 0, 0, 0, 0, 0, 0, 1, 0, 0, 0, 0, 0, 0, 0, 0, 0, 0, 0, 0, 0], [0, 0, 0, 0, 0, 0, 0, 0, 1, 0, 0, 0, 0, 0, 0, 0, 0, 0, 0, 0, 0, 0]], [[0, 0, 0, 0, 0, 0, 0, 0, 0, 1, 0, 0, 0, 0, 0, 0, 0, 0, 0, 0, 0, 0], [0, 0, 0, 0, 0, 0, 0, 0, 0, 1, 0, 0, 0, 0, 0, 0, 0, 0, 0, 0, 0, 0], [0, 0, 0, 0, 0, 0, 0, 0, 0, 1, 0, 0, 0, 0, 0, 0, 0, 0, 0, 0, 0, 0]], [[0, 0, 0, 0, 0, 0, 0, 0, 0, 0, 1, 0, 0, 0, 0, 0, 0, 0, 0, 0, 0, 0], [0, 0, 0, 0, 0, 0, 0, 0, 0, 0, 1, 0, 0, 0, 0, 0, 0, 0, 0, 0, 0, 0], [0, 0, 0, 0, 0, 0, 0, 0, 0, 0, 1, 0, 0, 0, 0, 0, 0, 0, 0, 0, 0, 0]], [[0, 0, 0, 0, 0, 0, 0, 0, 0, 0, 0, 1, 0, 0, 0, 0, 0, 0, 0, 0, 0, 0], [0, 0, 0, 0, 0, 0, 0, 0, 0, 0, 0, 1, 0, 0, 0, 0, 0, 0, 0, 0, 0, 0], [0, 0, 0, 0, 0, 0, 0, 0, 0, 0, 0, 1, 0, 0, 0, 0, 0, 0, 0, 0, 0, 0]], [[0, 0, 0, 0, 0, 0, 0, 0, 0, 0, 0, 0, 1, 0, 0, 0, 0, 0, 0, 0, 0, 0], [0, 0, 0, 0, 0, 0, 0, 0, 0, 0, 0, 0, 1, 0, 0, 0, 0, 0, 0, 0, 0, 0], [0, 0, 0, 0, 0, 0, 0, 0, 0, 0, 0, 0, 1, 0, 0, 0, 0, 0, 0, 0, 0, 0]], [[0, 0, 0, 0, 0, 0, 0, 0, 0, 0, 0, 0, 0, 1, 0, 0, 0, 0, 0, 0, 0, 0], [0, 0, 0, 0, 0, 0, 0, 0, 0, 0, 0, 0, 0, 1, 0, 0, 0, 0, 0, 0, 0, 0], [0, 0, 0, 0, 0, 0, 0, 0, 0, 0, 0, 0, 0, 1, 0, 0, 0, 0, 0, 0, 0, 0]], [[0, 0, 0, 0, 0, 0, 0, 0, 0, 0, 0, 0, 0, 0, 1, 0, 0, 0, 0, 0, 0, 0], [0, 0, 0, 0, 0, 0, 0, 0, 0, 0, 0, 0, 0, 0, 1, 0, 0, 0, 0, 0, 0, 0], [0, 0, 0, 0, 0, 0, 0, 0, 0, 0, 0, 0, 0, 0, 1, 0, 0, 0, 0, 0, 0, 0]], [[0, 0, 0, 0, 0, 0, 0, 0, 0, 0, 0, 0, 0, 0, 0, 1, 0, 0, 0, 0, 0, 0], [0, 0, 0, 0, 0, 0, 0, 0, 0, 0, 0, 0, 0, 0, 0, 1, 0, 0, 0, 0, 0, 0], [0, 0, 0, 0, 0, 0, 0, 0, 0, 0, 0, 0, 0, 0, 0, 1, 0, 0, 0, 0, 0, 0]], [[0, 0, 0, 0, 0, 0, 0, 0, 0, 0, 0, 0, 0, 0, 0, 0, 1, 0, 0, 0, 0, 0], [0, 0, 0, 0, 0, 0, 0, 0, 0, 0, 0, 0, 0, 0, 0, 0, 1, 0, 0, 0, 0, 0], [0, 0, 0, 0, 0, 0, 0, 0, 0, 0, 0, 0, 0, 0, 0, 0, 1, 0, 0, 0, 0, 0]], [[0, 0, 0, 0, 0, 0, 0, 0, 0, 0, 0, 0, 0, 0, 0, 0, 0, 1, 0, 0, 0, 0], [0, 0, 0, 0, 0, 0, 0, 0, 0, 0, 0, 0, 0, 0, 0, 0, 0, 1, 0, 0, 0, 0], [0, 0, 0, 0, 0, 0, 0, 0, 0, 0, 0, 0, 0, 0, 0, 0, 0, 1, 0, 0, 0, 0]], [[0, 0, 0, 0, 0, 0, 0, 0, 0, 0, 0, 0, 0, 0, 0, 0, 0, 0, 1, 0, 0, 0], [0, 0, 0, 0, 0, 0, 0, 0, 0, 0, 0, 0, 0, 0, 0, 0, 0, 0, 1, 0, 0, 0], [0, 0, 0, 0, 0, 0, 0, 0, 0, 0, 0, 0, 0, 0, 0, 0, 0, 0, 1, 0, 0, 0]], [[0, 0, 0, 0, 0, 0, 0, 0, 0, 0, 0, 0, 0, 0, 0, 0, 0, 0, 0, 1, 0, 0], [0, 0, 0, 0, 0, 0, 0, 0, 0, 0, 0, 0, 0, 0, 0, 0, 0, 0, 0, 1, 0, 0], [0, 0, 0, 0, 0, 0, 0, 0, 0, 0, 0, 0, 0, 0, 0, 0, 0, 0, 0, 1, 0, 0]], [[0, 0, 0, 0, 0, 0, 0, 0, 0, 0, 0, 0, 0, 0, 0, 0, 0, 0, 0, 0, 1, 0], [0, 0, 0, 0, 0, 0, 0, 0, 0, 0, 0, 0, 0, 0, 0, 0, 0, 0, 0, 0, 1, 0], [0, 0, 0, 0, 0, 0, 0, 0, 0, 0, 0, 0, 0, 0, 0, 0, 0, 0, 0, 0, 1, 0]], [[0, 0, 0, 0, 0, 0, 0, 0, 0, 0, 0, 0, 0, 0, 0, 0, 0, 0, 0, 0, 0, 1], [0, 0, 0, 0, 0, 0, 0, 0, 0, 0, 0, 0, 0, 0, 0, 0, 0, 0, 0, 0, 0, 1], [0, 0, 0, 0, 0, 0, 0, 0, 0, 0, 0, 0, 0, 0, 0, 0, 0, 0, 0, 0, 0, 1]]], prehc: 0, lambdahc: 1.502, rcut: 5.007, dcut: 0.01, rcut_in: 1.403, dcut_in: 0.01, inner_cutoff_type: distance}
  [1, 0]: {nradmax: 22, lmax: 2, nradbasemax: 22, radbasename: ChebExpCos, radparameters: [1.502], radcoefficients: [[[1, 0, 0, 0, 0, 0, 0, 0, 0, 0, 0, 0, 0, 0, 0, 0, 0, 0, 0, 0, 0, 0], [1, 0, 0, 0, 0, 0, 0, 0, 0, 0, 0, 0, 0, 0, 0, 0, 0, 0, 0, 0, 0, 0], [1, 0, 0, 0, 0, 0, 0, 0, 0, 0, 0, 0, 0, 0, 0, 0, 0, 0, 0, 0, 0, 0]], [[0, 1, 0, 0, 0, 0, 0, 0, 0, 0, 0, 0, 0, 0, 0, 0, 0, 0, 0, 0, 0, 0], [0, 1, 0, 0, 0, 0, 0, 0, 0, 0, 0, 0, 0, 0, 0, 0, 0, 0, 0, 0, 0, 0], [0, 1, 0, 0, 0, 0, 0, 0, 0, 0, 0, 0, 0, 0, 0, 0, 0, 0, 0, 0, 0, 0]], [[0, 0, 1, 0, 0, 0, 0, 0, 0, 0, 0, 0, 0, 0, 0, 0, 0, 0, 0, 0, 0, 0], [0, 0, 1, 0, 0, 0, 0, 0, 0, 0, 0, 0, 0, 0, 0, 0, 0, 0, 0, 0, 0, 0], [0, 0, 1, 0, 0, 0, 0, 0, 0, 0, 0, 0, 0, 0, 0, 0, 0, 0, 0, 0, 0, 0]], [[0, 0, 0, 1, 0, 0, 0, 0, 0, 0, 0, 0, 0, 0, 0, 0, 0, 0, 0, 0, 0, 0], [0, 0, 0, 1, 0, 0, 0, 0, 0, 0, 0, 0, 0, 0, 0, 0, 0, 0, 0, 0, 0, 0], [0, 0, 0, 1, 0, 0, 0, 0, 0, 0, 0, 0, 0, 0, 0, 0, 0, 0, 0, 0, 0, 0]], [[0, 0, 0, 0, 1, 0, 0, 0, 0, 0, 0, 0, 0, 0, 0, 0, 0, 0, 0, 0, 0, 0], [0, 0, 0, 0, 1, 0, 0, 0, 0, 0, 0, 0, 0, 0, 0, 0, 0, 0, 0, 0, 0, 0], [0, 0, 0, 0, 1, 0, 0, 0, 0, 0, 0, 0, 0, 0, 0, 0, 0, 0, 0, 0, 0, 0]], [[0, 0, 0, 0, 0, 1, 0, 0, 0, 0, 0, 0, 0, 0, 0, 0, 0, 0, 0, 0, 0, 0], [0, 0, 0, 0, 0, 1, 0, 0, 0, 0, 0, 0, 0, 0, 0, 0, 0, 0, 0, 0, 0, 0], [0, 0, 0, 0, 0, 1, 0, 0, 0, 0, 0, 0, 0, 0, 0, 0, 0, 0, 0, 0, 0, 0]], [[0, 0, 0, 0, 0, 0, 1, 0, 0, 0, 0, 0, 0, 0, 0, 0, 0, 0, 0, 0, 0, 0], [0, 0, 0, 0, 0, 0, 1, 0, 0, 0, 0, 0, 0, 0, 0, 0, 0, 0, 0, 0, 0, 0], [0, 0, 0, 0, 0, 0, 1, 0, 0, 0, 0, 0, 0, 0, 0, 0, 0, 0, 0, 0, 0, 0]], [[0, 0, 0, 0, 0, 0, 0, 1, 0, 0, 0, 0, 0, 0, 0, 0, 0, 0, 0, 0, 0, 0], [0, 0, 0, 0, 0, 0, 0, 1, 0, 0, 0, 0, 0, 0, 0, 0, 0, 0, 0, 0, 0, 0], [0, 0, 0, 0, 0, 0, 0, 1, 0, 0, 0, 0, 0, 0, 0, 0, 0, 0, 0, 0, 0, 0]], [[0, 0, 0, 0, 0, 0, 0, 0, 1, 0, 0, 0, 0, 0, 0, 0, 0, 0, 0, 0, 0, 0], [0, 0, 0, 0, 0, 0, 0, 0, 1, 0, 0, 0, 0, 0, 0, 0, 0, 0, 0, 0, 0, 0], [0, 0, 0, 0, 0, 0, 0, 0, 1, 0, 0, 0, 0, 0, 0, 0, 0, 0, 0, 0, 0, 0]], [[0, 0, 0, 0, 0, 0, 0, 0, 0, 1, 0, 0, 0, 0, 0, 0, 0, 0, 0, 0, 0, 0], [0, 0, 0, 0, 0, 0, 0, 0, 0, 1, 0, 0, 0, 0, 0, 0, 0, 0, 0, 0, 0, 0], [0, 0, 0, 0, 0, 0, 0, 0, 0, 1, 0, 0, 0, 0, 0, 0, 0, 0, 0, 0, 0, 0]], [[0, 0, 0, 0, 0, 0, 0, 0, 0, 0, 1, 0, 0, 0, 0, 0, 0, 0, 0, 0, 0, 0], [0, 0, 0, 0, 0, 0, 0, 0, 0, 0, 1, 0, 0, 0, 0, 0, 0, 0, 0, 0, 0, 0], [0, 0, 0, 0, 0, 0, 0, 0, 0, 0, 1, 0, 0, 0, 0, 0, 0, 0, 0, 0, 0, 0]], [[0, 0, 0, 0, 0, 0, 0, 0, 0, 0, 0, 1, 0, 0, 0, 0, 0, 0, 0, 0, 0, 0], [0, 0, 0, 0, 0, 0, 0, 0, 0, 0, 0, 1, 0, 0, 0, 0, 0, 0, 0, 0, 0, 0], [0, 0, 0, 0, 0, 0, 0, 0, 0, 0, 0, 1, 0, 0, 0, 0, 0, 0, 0, 0, 0, 0]], [[0, 0, 0, 0, 0, 0, 0, 0, 0, 0, 0, 0, 1, 0, 0, 0, 0, 0, 0, 0, 0, 0], [0, 0, 0, 0, 0, 0, 0, 0, 0, 0, 0, 0, 1, 0, 0, 0, 0, 0, 0, 0, 0, 0], [0, 0, 0, 0, 0, 0, 0, 0, 0, 0, 0, 0, 1, 0, 0, 0, 0, 0, 0, 0, 0, 0]], [[0, 0, 0, 0, 0, 0, 0, 0, 0, 0, 0, 0, 0, 1, 0, 0, 0, 0, 0, 0, 0, 0], [0, 0, 0, 0, 0, 0, 0, 0, 0, 0, 0, 0, 0, 1, 0, 0, 0, 0, 0, 0, 0, 0], [0, 0, 0, 0, 0, 0, 0, 0, 0, 0, 0, 0, 0, 1, 0, 0, 0, 0, 0, 0, 0, 0]], [[0, 0, 0, 0, 0, 0, 0, 0, 0, 0, 0, 0, 0, 0, 1, 0, 0, 0, 0, 0, 0, 0], [0, 0, 0, 0, 0, 0, 0, 0, 0, 0, 0, 0, 0, 0, 1, 0, 0, 0, 0, 0, 0, 0], [0, 0, 0, 0, 0, 0, 0, 0, 0, 0, 0, 0, 0, 0, 1, 0, 0, 0, 0, 0, 0, 0]], [[0, 0, 0, 0, 0, 0, 0, 0, 0, 0, 0, 0, 0, 0, 0, 1, 0, 0, 0, 0, 0, 0], [0, 0, 0, 0, 0, 0, 0, 0, 0, 0, 0, 0, 0, 0, 0, 1, 0, 0, 0, 0, 0, 0], [0, 0, 0, 0, 0, 0, 0, 0, 0, 0, 0, 0, 0, 0, 0, 1, 0, 0, 0, 0, 0, 0]], [[0, 0, 0, 0, 0, 0, 0, 0, 0, 0, 0, 0, 0, 0, 0, 0, 1, 0, 0, 0, 0, 0], [0, 0, 0, 0, 0, 0, 0, 0, 0, 0, 0, 0, 0, 0, 0, 0, 1, 0, 0, 0, 0, 0], [0, 0, 0, 0, 0, 0, 0, 0, 0, 0, 0, 0, 0, 0, 0, 0, 1, 0, 0, 0, 0, 0]], [[0, 0, 0, 0, 0, 0, 0, 0, 0, 0, 0, 0, 0, 0, 0, 0, 0, 1, 0, 0, 0, 0], [0, 0, 0, 0, 0, 0, 0, 0, 0, 0, 0, 0, 0, 0, 0, 0, 0, 1, 0, 0, 0, 0], [0, 0, 0, 0, 0, 0, 0, 0, 0, 0, 0, 0, 0, 0, 0, 0, 0, 1, 0, 0, 0, 0]], [[0, 0, 0, 0, 0, 0, 0, 0, 0, 0, 0, 0, 0, 0, 0, 0, 0, 0, 1, 0, 0, 0], [0, 0, 0, 0, 0, 0, 0, 0, 0, 0, 0, 0, 0, 0, 0, 0, 0, 0, 1, 0, 0, 0], [0, 0, 0, 0, 0, 0, 0, 0, 0, 0, 0, 0, 0, 0, 0, 0, 0, 0, 1, 0, 0, 0]], [[0, 0, 0, 0, 0, 0, 0, 0, 0, 0, 0, 0, 0, 0, 0, 0, 0, 0, 0, 1, 0, 0], [0, 0, 0, 0, 0, 0, 0, 0, 0, 0, 0, 0, 0, 0, 0, 0, 0, 0, 0, 1, 0, 0], [0, 0, 0, 0, 0, 0, 0, 0, 0, 0, 0, 0, 0, 0, 0, 0, 0, 0, 0, 1, 0, 0]], [[0, 0, 0, 0, 0, 0, 0, 0, 0, 0, 0, 0, 0, 0, 0, 0, 0, 0, 0, 0, 1, 0], [0, 0, 0, 0, 0, 0, 0, 0, 0, 0, 0, 0, 0, 0, 0, 0, 0, 0, 0, 0, 1, 0], [0, 0, 0, 0, 0, 0, 0, 0, 0, 0, 0, 0, 0, 0, 0, 0, 0, 0, 0, 0, 1, 0]], [[0, 0, 0, 0, 0, 0, 0, 0, 0, 0, 0, 0, 0, 0, 0, 0, 0, 0, 0, 0, 0, 1], [0, 0, 0, 0, 0, 0, 0, 0, 0, 0, 0, 0, 0, 0, 0, 0, 0, 0, 0, 0, 0, 1], [0, 0, 0, 0, 0, 0, 0, 0, 0, 0, 0, 0, 0, 0, 0, 0, 0, 0, 0, 0, 0, 1]]], prehc: 0, lambdahc: 1.502, rcut: 5.007, dcut: 0.01, rcut_in: 1.403, dcut_in: 0.01, inner_cutoff_type: distance}
  [1, 1]: {nradmax: 22, lmax: 2, nradbasemax: 22, radbasename: ChebExpCos, radparameters: [1.267], radcoefficients: [[[1, 0, 0, 0, 0, 0, 0, 0, 0, 0, 0, 0, 0, 0, 0, 0, 0, 0, 0, 0, 0, 0], [1, 0, 0, 0, 0, 0, 0, 0, 0, 0, 0, 0, 0, 0, 0, 0, 0, 0, 0, 0, 0, 0], [1, 0, 0, 0, 0, 0, 0, 0, 0, 0, 0, 0, 0, 0, 0, 0, 0, 0, 0, 0, 0, 0]], [[0, 1, 0, 0, 0, 0, 0, 0, 0, 0, 0, 0, 0, 0, 0, 0, 0, 0, 0, 0, 0, 0], [0, 1, 0, 0, 0, 0, 0, 0, 0, 0, 0, 0, 0, 0, 0, 0, 0, 0, 0, 0, 0, 0], [0, 1, 0, 0, 0, 0, 0, 0, 0, 0, 0, 0, 0, 0, 0, 0, 0, 0, 0, 0, 0, 0]], [[0, 0, 1, 0, 0, 0, 0, 0, 0, 0, 0, 0, 0, 0, 0, 0, 0, 0, 0, 0, 0, 0], [0, 0, 1, 0, 0, 0, 0, 0, 0, 0, 0, 0, 0, 0, 0, 0, 0, 0, 0, 0, 0, 0], [0, 0, 1, 0, 0, 0, 0, 0, 0, 0, 0, 0, 0, 0, 0, 0, 0, 0, 0, 0, 0, 0]], [[0, 0, 0, 1, 0, 0, 0, 0, 0, 0, 0, 0, 0, 0, 0, 0, 0, 0, 0, 0, 0, 0], [0, 0, 0, 1, 0, 0, 0, 0, 0, 0, 0, 0, 0, 0, 0, 0, 0, 0, 0, 0, 0, 0], [0, 0, 0, 1, 0, 0, 0, 0, 0, 0, 0, 0, 0, 0, 0, 0, 0, 0, 0, 0, 0, 0]], [[0, 0, 0, 0, 1, 0, 0, 0, 0, 0, 0, 0, 0, 0, 0, 0, 0, 0, 0, 0, 0, 0], [0, 0, 0, 0, 1, 0, 0, 0, 0, 0, 0, 0, 0, 0, 0, 0, 0, 0, 0, 0, 0, 0], [0, 0, 0, 0, 1, 0, 0, 0, 0, 0, 0, 0, 0, 0, 0, 0, 0, 0, 0, 0, 0, 0]], [[0, 0, 0, 0, 0, 1, 0, 0, 0, 0, 0, 0, 0, 0, 0, 0, 0, 0, 0, 0, 0, 0], [0, 0, 0, 0, 0, 1, 0, 0, 0, 0, 0, 0, 0, 0, 0, 0, 0, 0, 0, 0, 0, 0], [0, 0, 0, 0, 0, 1, 0, 0, 0, 0, 0, 0, 0, 0, 0, 0, 0, 0, 0, 0, 0, 0]], [[0, 0, 0, 0, 0, 0, 1, 0, 0, 0, 0, 0, 0, 0, 0, 0, 0, 0, 0, 0, 0, 0], [0, 0, 0, 0, 0, 0, 1, 0, 0, 0, 0, 0, 0, 0, 0, 0, 0, 0, 0, 0, 0, 0], [0, 0, 0, 0, 0, 0, 1, 0, 0, 0, 0, 0, 0, 0, 0, 0, 0, 0, 0, 0, 0, 0]], [[0, 0, 0, 0, 0, 0, 0, 1, 0, 0, 0, 0, 0, 0, 0, 0, 0, 0, 0, 0, 0, 0], [0, 0, 0, 0, 0, 0, 0, 1, 0, 0, 0, 0, 0, 0, 0, 0, 0, 0, 0, 0, 0, 0], [0, 0, 0, 0, 0, 0, 0, 1, 0, 0, 0, 0, 0, 0, 0, 0, 0, 0, 0, 0, 0, 0]], [[0, 0, 0, 0, 0, 0, 0, 0, 1, 0, 0, 0, 0, 0, 0, 0, 0, 0, 0, 0, 0, 0], [0, 0, 0, 0, 0, 0, 0, 0, 1, 0, 0, 0, 0, 0, 0, 0, 0, 0, 0, 0, 0, 0], [0, 0, 0, 0, 0, 0, 0, 0, 1, 0, 0, 0, 0, 0, 0, 0, 0, 0, 0, 0, 0, 0]], [[0, 0, 0, 0, 0, 0, 0, 0, 0, 1, 0, 0, 0, 0, 0, 0, 0, 0, 0, 0, 0, 0], [0, 0, 0, 0, 0, 0, 0, 0, 0, 1, 0, 0, 0, 0, 0, 0, 0, 0, 0, 0, 0, 0], [0, 0, 0, 0, 0, 0, 0, 0, 0, 1, 0, 0, 0, 0, 0, 0, 0, 0, 0, 0, 0, 0]], [[0, 0, 0, 0, 0, 0, 0, 0, 0, 0, 1, 0, 0, 0, 0, 0, 0, 0, 0, 0, 0, 0], [0, 0, 0, 0, 0, 0, 0, 0, 0, 0, 1, 0, 0, 0, 0, 0, 0, 0, 0, 0, 0, 0], [0, 0, 0, 0, 0, 0, 0, 0, 0, 0, 1, 0, 0, 0, 0, 0, 0, 0, 0, 0, 0, 0]], [[0, 0, 0, 0, 0, 0, 0, 0, 0, 0, 0, 1, 0, 0, 0, 0, 0, 0, 0, 0, 0, 0], [0, 0, 0, 0, 0, 0, 0, 0, 0, 0, 0, 1, 0, 0, 0, 0, 0, 0, 0, 0, 0, 0], [0, 0, 0, 0, 0, 0, 0, 0, 0, 0, 0, 1, 0, 0, 0, 0, 0, 0, 0, 0, 0, 0]], [[0, 0, 0, 0, 0, 0, 0, 0, 0, 0, 0, 0, 1, 0, 0, 0, 0, 0, 0, 0, 0, 0], [0, 0, 0, 0, 0, 0, 0, 0, 0, 0, 0, 0, 1, 0, 0, 0, 0, 0, 0, 0, 0, 0], [0, 0, 0, 0, 0, 0, 0, 0, 0, 0, 0, 0, 1, 0, 0, 0, 0, 0, 0, 0, 0, 0]], [[0, 0, 0, 0, 0, 0, 0, 0, 0, 0, 0, 0, 0, 1, 0, 0, 0, 0, 0, 0, 0, 0], [0, 0, 0, 0, 0, 0, 0, 0, 0, 0, 0, 0, 0, 1, 0, 0, 0, 0, 0, 0, 0, 0], [0, 0, 0, 0, 0, 0, 0, 0, 0, 0, 0, 0, 0, 1, 0, 0, 0, 0, 0, 0, 0, 0]], [[0, 0, 0, 0, 0, 0, 0, 0, 0, 0, 0, 0, 0, 0, 1, 0, 0, 0, 0, 0, 0, 0], [0, 0, 0, 0, 0, 0, 0, 0, 0, 0, 0, 0, 0, 0, 1, 0, 0, 0, 0, 0, 0, 0], [0, 0, 0, 0, 0, 0, 0, 0, 0, 0, 0, 0, 0, 0, 1, 0, 0, 0, 0, 0, 0, 0]], [[0, 0, 0, 0, 0, 0, 0, 0, 0, 0, 0, 0, 0, 0, 0, 1, 0, 0, 0, 0, 0, 0], [0, 0, 0, 0, 0, 0, 0, 0, 0, 0, 0, 0, 0, 0, 0, 1, 0, 0, 0, 0, 0, 0], [0, 0, 0, 0, 0, 0, 0, 0, 0, 0, 0, 0, 0, 0, 0, 1, 0, 0, 0, 0, 0, 0]], [[0, 0, 0, 0, 0, 0, 0, 0, 0, 0, 0, 0, 0, 0, 0, 0, 1, 0, 0, 0, 0, 0], [0, 0, 0, 0, 0, 0, 0, 0, 0, 0, 0, 0, 0, 0, 0, 0, 1, 0, 0, 0, 0, 0], [0, 0, 0, 0, 0, 0, 0, 0, 0, 0, 0, 0, 0, 0, 0, 0, 1, 0, 0, 0, 0, 0]], [[0, 0, 0, 0, 0, 0, 0, 0, 0, 0, 0, 0, 0, 0, 0, 0, 0, 1, 0, 0, 0, 0], [0, 0, 0, 0, 0, 0, 0, 0, 0, 0, 0, 0, 0, 0, 0, 0, 0, 1, 0, 0, 0, 0], [0, 0, 0, 0, 0, 0, 0, 0, 0, 0, 0, 0, 0, 0, 0, 0, 0, 1, 0, 0, 0, 0]], [[0, 0, 0, 0, 0, 0, 0, 0, 0, 0, 0, 0, 0, 0, 0, 0, 0, 0, 1, 0, 0, 0], [0, 0, 0, 0, 0, 0, 0, 0, 0, 0, 0, 0, 0, 0, 0, 0, 0, 0, 1, 0, 0, 0], [0, 0, 0, 0, 0, 0, 0, 0, 0, 0, 0, 0, 0, 0, 0, 0, 0, 0, 1, 0, 0, 0]], [[0, 0, 0, 0, 0, 0, 0, 0, 0, 0, 0, 0, 0, 0, 0, 0, 0, 0, 0, 1, 0, 0], [0, 0, 0, 0, 0, 0, 0, 0, 0, 0, 0, 0, 0, 0, 0, 0, 0, 0, 0, 1, 0, 0], [0, 0, 0, 0, 0, 0, 0, 0, 0, 0, 0, 0, 0, 0, 0, 0, 0, 0, 0, 1, 0, 0]], [[0, 0, 0, 0, 0, 0, 0, 0, 0, 0, 0, 0, 0, 0, 0, 0, 0, 0, 0, 0, 1, 0], [0, 0, 0, 0, 0, 0, 0, 0, 0, 0, 0, 0, 0, 0, 0, 0, 0, 0, 0, 0, 1, 0], [0, 0, 0, 0, 0, 0, 0, 0, 0, 0, 0, 0, 0, 0, 0, 0, 0, 0, 0, 0, 1, 0]], [[0, 0, 0, 0, 0, 0, 0, 0, 0, 0, 0, 0, 0, 0, 0, 0, 0, 0, 0, 0, 0, 1], [0, 0, 0, 0, 0, 0, 0, 0, 0, 0, 0, 0, 0, 0, 0, 0, 0, 0, 0, 0, 0, 1], [0, 0, 0, 0, 0, 0, 0, 0, 0, 0, 0, 0, 0, 0, 0, 0, 0, 0, 0, 0, 0, 1]]], prehc: 0, lambdahc: 1.267, rcut: 4.224, dcut: 0.01, rcut_in: 1.100, dcut_in: 0.01, inner_cutoff_type: distance}
functions:
  0:
    - {mu0: 0, rank: 1, ndensity: 1, num_ms_combs: 1, mus: [0], ns: [1], ls: [0], ms_combs: [0], ctildes: [-3.5893645791774813]}
    - {mu0: 0, rank: 1, ndensity: 1, num_ms_combs: 1, mus: [1], ns: [1], ls: [0], ms_combs: [0], ctildes: [-0.2865585450975576]}
    - {mu0: 0, rank: 1, ndensity: 1, num_ms_combs: 1, mus: [0], ns: [2], ls: [0], ms_combs: [0], ctildes: [5.531679068260139]}
    - {mu0: 0, rank: 1, ndensity: 1, num_ms_combs: 1, mus: [1], ns: [2], ls: [0], ms_combs: [0], ctildes: [0.03096587388128715]}
    - {mu0: 0, rank: 1, ndensity: 1, num_ms_combs: 1, mus: [0], ns: [3], ls: [0], ms_combs: [0], ctildes: [-4.031793179679124]}
    - {mu0: 0, rank: 1, ndensity: 1, num_ms_combs: 1, mus: [1], ns: [3], ls: [0], ms_combs: [0], ctildes: [3.1892857099590506]}
    - {mu0: 0, rank: 1, ndensity: 1, num_ms_combs: 1, mus: [0], ns: [4], ls: [0], ms_combs: [0], ctildes: [4.295813830764501]}
    - {mu0: 0, rank: 1, ndensity: 1, num_ms_combs: 1, mus: [1], ns: [4], ls: [0], ms_combs: [0], ctildes: [-5.437879749126653]}
    - {mu0: 0, rank: 1, ndensity: 1, num_ms_combs: 1, mus: [0], ns: [5], ls: [0], ms_combs: [0], ctildes: [0.3753357311053842]}
    - {mu0: 0, rank: 1, ndensity: 1, num_ms_combs: 1, mus: [1], ns: [5], ls: [0], ms_combs: [0], ctildes: [2.7549371875499356]}
    - {mu0: 0, rank: 1, ndensity: 1, num_ms_combs: 1, mus: [0], ns: [6], ls: [0], ms_combs: [0], ctildes: [0.7649054284663873]}
    - {mu0: 0, rank: 1, ndensity: 1, num_ms_combs: 1, mus: [1], ns: [6], ls: [0], ms_combs: [0], ctildes: [-2.7017209753860425]}
    - {mu0: 0, rank: 1, ndensity: 1, num_ms_combs: 1, mus: [0], ns: [7], ls: [0], ms_combs: [0], ctildes: [-0.19267128872435224]}
    - {mu0: 0, rank: 1, ndensity: 1, num_ms_combs: 1, mus: [1], ns: [7], ls: [0], ms_combs: [0], ctildes: [4.108348852567333]}
    - {mu0: 0, rank: 1, ndensity: 1, num_ms_combs: 1, mus: [0], ns: [8], ls: [0], ms_combs: [0], ctildes: [-2.6692460937169264]}
    - {mu0: 0, rank: 1, ndensity: 1, num_ms_combs: 1, mus: [1], ns: [8], ls: [0], ms_combs: [0], ctildes: [-1.5971257109034018]}
    - {mu0: 0, rank: 1, ndensity: 1, num_ms_combs: 1, mus: [0], ns: [9], ls: [0], ms_combs: [0], ctildes: [3.7893270473233414]}
    - {mu0: 0, rank: 1, ndensity: 1, num_ms_combs: 1, mus: [1], ns: [9], ls: [0], ms_combs: [0], ctildes: [-1.9072339273527597]}
    - {mu0: 0, rank: 1, ndensity: 1, num_ms_combs: 1, mus: [0], ns: [10], ls: [0], ms_combs: [0], ctildes: [-0.7048058652794431]}
    - {mu0: 0, rank: 1, ndensity: 1, num_ms_combs: 1, mus: [1], ns: [10], ls: [0], ms_combs: [0], ctildes: [1.5720892645430595]}
    - {mu0: 0, rank: 1, ndensity: 1, num_ms_combs: 1, mus: [0], ns: [11], ls: [0], ms_combs: [0], ctildes: [-0.896205487633607]}
    - {mu0: 0, rank: 1, ndensity: 1, num_ms_combs: 1, mus: [1], ns: [11], ls: [0], ms_combs: [0], ctildes: [0.21655750058363576]}
    - {mu0: 0, rank: 1, ndensity: 1, num_ms_combs: 1, mus: [0], ns: [12], ls: [0], ms_combs: [0], ctildes: [0.9945110772154424]}
    - {mu0: 0, rank: 1, ndensity: 1, num_ms_combs: 1, mus: [1], ns: [12], ls: [0], ms_combs: [0], ctildes: [0.1526041949016377]}
    - {mu0: 0, rank: 1, ndensity: 1, num_ms_combs: 1, mus: [0], ns: [13], ls: [0], ms_combs: [0], ctildes: [0.17427292227846594]}
    - {mu0: 0, rank: 1, ndensity: 1, num_ms_combs: 1, mus: [1], ns: [13], ls: [0], ms_combs: [0], ctildes: [-0.2316848085630018]}
    - {mu0: 0, rank: 1, ndensity: 1, num_ms_combs: 1, mus: [0], ns: [14], ls: [0], ms_combs: [0], ctildes: [-0.2617595623567815]}
    - {mu0: 0, rank: 1, ndensity: 1, num_ms_combs: 1, mus: [1], ns: [14], ls: [0], ms_combs: [0], ctildes: [-0.0174818707313593]}
    - {mu0: 0, rank: 1, ndensity: 1, num_ms_combs: 1, mus: [0], ns: [15], ls: [0], ms_combs: [0], ctildes: [-0.03143531278168074]}
    - {mu0: 0, rank: 1, ndensity: 1, num_ms_combs: 1, mus: [1], ns: [15], ls: [0], ms_combs: [0], ctildes: [0.24499057332405]}
    - {mu0: 0, rank: 1, ndensity: 1, num_ms_combs: 1, mus: [0], ns: [16], ls: [0], ms_combs: [0], ctildes: [0.34152745381222294]}
    - {mu0: 0, rank: 1, ndensity: 1, num_ms_combs: 1, mus: [1], ns: [16], ls: [0], ms_combs: [0], ctildes: [-0.07749829231270063]}
    - {mu0: 0, rank: 1, ndensity: 1, num_ms_combs: 1, mus: [0], ns: [17], ls: [0], ms_combs: [0], ctildes: [0.2187394712785098]}
    - {mu0: 0, rank: 1, ndensity: 1, num_ms_combs: 1, mus: [1], ns: [17], ls: [0], ms_combs: [0], ctildes: [-0.260044990317523]}
    - {mu0: 0, rank: 1, ndensity: 1, num_ms_combs: 1, mus: [0], ns: [18], ls: [0], ms_combs: [0], ctildes: [-0.13293708248203628]}
    - {mu0: 0, rank: 1, ndensity: 1, num_ms_combs: 1, mus: [1], ns: [18], ls: [0], ms_combs: [0], ctildes: [0.13955797932947178]}
    - {mu0: 0, rank: 1, ndensity: 1, num_ms_combs: 1, mus: [0], ns: [19], ls: [0], ms_combs: [0], ctildes: [-0.15358080706661098]}
    - {mu0: 0, rank: 1, ndensity: 1, num_ms_combs: 1, mus: [1], ns: [19], ls: [0], ms_combs: [0], ctildes: [0.16533092514553843]}
    - {mu0: 0, rank: 1, ndensity: 1, num_ms_combs: 1, mus: [0], ns: [20], ls: [0], ms_combs: [0], ctildes: [0.120465467560048]}
    - {mu0: 0, rank: 1, ndensity: 1, num_ms_combs: 1, mus: [1], ns: [20], ls: [0], ms_combs: [0], ctildes: [-0.25248245170441963]}
    - {mu0: 0, rank: 1, ndensity: 1, num_ms_combs: 1, mus: [0], ns: [21], ls: [0], ms_combs: [0], ctildes: [0.18655383063899883]}
    - {mu0: 0, rank: 1, ndensity: 1, num_ms_combs: 1, mus: [1], ns: [21], ls: [0], ms_combs: [0], ctildes: [0.1731395617075562]}
    - {mu0: 0, rank: 1, ndensity: 1, num_ms_combs: 1, mus: [0], ns: [22], ls: [0], ms_combs: [0], ctildes: [-0.07975193433362082]}
    - {mu0: 0, rank: 1, ndensity: 1, num_ms_combs: 1, mus: [1], ns: [22], ls: [0], ms_combs: [0], ctildes: [-0.01110343702635098]}
    - {mu0: 0, rank: 2, ndensity: 1, num_ms_combs: 1, mus: [0, 0], ns: [1, 1], ls: [0, 0], ms_combs: [0, 0], ctildes: [0.056845213107663634]}
    - {mu0: 0, rank: 2, ndensity: 1, num_ms_combs: 1, mus: [0, 1], ns: [1, 1], ls: [0, 0], ms_combs: [0, 0], ctildes: [0.28587346144743225]}
    - {mu0: 0, rank: 2, ndensity: 1, num_ms_combs: 1, mus: [1, 1], ns: [1, 1], ls: [0, 0], ms_combs: [0, 0], ctildes: [0.24825260403178634]}
    - {mu0: 0, rank: 2, ndensity: 1, num_ms_combs: 1, mus: [0, 0], ns: [1, 2], ls: [0, 0], ms_combs: [0, 0], ctildes: [2.53674183702825]}
    - {mu0: 0, rank: 2, ndensity: 1, num_ms_combs: 1, mus: [0, 1], ns: [1, 2], ls: [0, 0], ms_combs: [0, 0], ctildes: [1.0189498629160507]}
    - {mu0: 0, rank: 2, ndensity: 1, num_ms_combs: 1, mus: [1, 1], ns: [1, 2], ls: [0, 0], ms_combs: [0, 0], ctildes: [0.5050721331220858]}
    - {mu0: 0, rank: 2, ndensity: 1, num_ms_combs: 1, mus: [0, 0], ns: [1, 3], ls: [0, 0], ms_combs: [0, 0], ctildes: [-1.0435630766344055]}
    - {mu0: 0, rank: 2, ndensity: 1, num_ms_combs: 1, mus: [0, 1], ns: [1, 3], ls: [0, 0], ms_combs: [0, 0], ctildes: [-0.5212044797626664]}
    - {mu0: 0, rank: 2, ndensity: 1, num_ms_combs: 1, mus: [1, 1], ns: [1, 3], ls: [0, 0], ms_combs: [0, 0], ctildes: [-0.5670378322636416]}
    - {mu0: 0, rank: 2, ndensity: 1, num_ms_combs: 1, mus: [0, 1], ns: [2, 1], ls: [0, 0], ms_combs: [0, 0], ctildes: [0.09360538463930786]}
    - {mu0: 0, rank: 2, ndensity: 1, num_ms_combs: 1, mus: [0, 0], ns: [2, 2], ls: [0, 0], ms_combs: [0, 0], ctildes: [0.895260064261624]}
    - {mu0: 0, rank: 2, ndensity: 1, num_ms_combs: 1, mus: [0, 1], ns: [2, 2], ls: [0, 0], ms_combs: [0, 0], ctildes: [0.22912319882790205]}
    - {mu0: 0, rank: 2, ndensity: 1, num_ms_combs: 1, mus: [1, 1], ns: [2, 2], ls: [0, 0], ms_combs: [0, 0], ctildes: [0.2567315405052773]}
    - {mu0: 0, rank: 2, ndensity: 1, num_ms_combs: 1, mus: [0, 0], ns: [2, 3], ls: [0, 0], ms_combs: [0, 0], ctildes: [0.7075742783303192]}
    - {mu0: 0, rank: 2, ndensity: 1, num_ms_combs: 1, mus: [0, 1], ns: [2, 3], ls: [0, 0], ms_combs: [0, 0], ctildes: [-0.5682161721380661]}
    - {mu0: 0, rank: 2, ndensity: 1, num_ms_combs: 1, mus: [1, 1], ns: [2, 3], ls: [0, 0], ms_combs: [0, 0], ctildes: [7.764148843879609]}
    - {mu0: 0, rank: 2, ndensity: 1, num_ms_combs: 1, mus: [0, 1], ns: [3, 1], ls: [0, 0], ms_combs: [0, 0], ctildes: [0.41825141764341495]}
    - {mu0: 0, rank: 2, ndensity: 1, num_ms_combs: 1, mus: [0, 1], ns: [3, 2], ls: [0, 0], ms_combs: [0, 0], ctildes: [0.5956878571726683]}
    - {mu0: 0, rank: 2, ndensity: 1, num_ms_combs: 1, mus: [0, 0], ns: [3, 3], ls: [0, 0], ms_combs: [0, 0], ctildes: [-0.16822801537312584]}
    - {mu0: 0, rank: 2, ndensity: 1, num_ms_combs: 1, mus: [0, 1], ns: [3, 3], ls: [0, 0], ms_combs: [0, 0], ctildes: [-0.7583675087501941]}
    - {mu0: 0, rank: 2, ndensity: 1, num_ms_combs: 1, mus: [1, 1], ns: [3, 3], ls: [0, 0], ms_combs: [0, 0], ctildes: [-2.561041867662295]}
    - {mu0: 0, rank: 2, ndensity: 1, num_ms_combs: 3, mus: [0, 0], ns: [1, 1], ls: [1, 1], ms_combs: [-1, 1, 0, 0, 1, -1], ctildes: [0.4047367571648827, -0.4047367571648827, 0.4047367571648827]}
    - {mu0: 0, rank: 2, ndensity: 1, num_ms_combs: 3, mus: [0, 1], ns: [1, 1], ls: [1, 1], ms_combs: [-1, 1, 0, 0, 1, -1], ctildes: [0.2683489234892464, -0.2683489234892464, 0.2683489234892464]}
    - {mu0: 0, rank: 2, ndensity: 1, num_ms_combs: 3, mus: [1, 1], ns: [1, 1], ls: [1, 1], ms_combs: [-1, 1, 0, 0, 1, -1], ctildes: [-0.7508149716071478, 0.7508149716071478, -0.7508149716071478]}
    - {mu0: 0, rank: 2, ndensity: 1, num_ms_combs: 3, mus: [0, 0], ns: [1, 2], ls: [1, 1], ms_combs: [-1, 1, 0, 0, 1, -1], ctildes: [-0.590887168513534, 0.590887168513534, -0.590887168513534]}
    - {mu0: 0, rank: 2, ndensity: 1, num_ms_combs: 3, mus: [0, 1], ns: [1, 2], ls: [1, 1], ms_combs: [-1, 1, 0, 0, 1, -1], ctildes: [-2.304207193548621, 2.304207193548621, -2.304207193548621]}
    - {mu0: 0, rank: 2, ndensity: 1, num_ms_combs: 3, mus: [1, 1], ns: [1, 2], ls: [1, 1], ms_combs: [-1, 1, 0, 0, 1, -1], ctildes: [-18.07214556631373, 18.07214556631373, -18.07214556631373]}
    - {mu0: 0, rank: 2, ndensity: 1, num_ms_combs: 3, mus: [0, 0], ns: [1, 3], ls: [1, 1], ms_combs: [-1, 1, 0, 0, 1, -1], ctildes: [-0.8032807236101287, 0.8032807236101287, -0.8032807236101287]}
    - {mu0: 0, rank: 2, ndensity: 1, num_ms_combs: 3, mus: [0, 1], ns: [1, 3], ls: [1, 1], ms_combs: [-1, 1, 0, 0, 1, -1], ctildes: [0.7161063320948824, -0.7161063320948824, 0.7161063320948824]}
    - {mu0: 0, rank: 2, ndensity: 1, num_ms_combs: 3, mus: [1, 1], ns: [1, 3], ls: [1, 1], ms_combs: [-1, 1, 0, 0, 1, -1], ctildes: [7.864817089747764, -7.864817089747764, 7.864817089747764]}
    - {mu0: 0, rank: 2, ndensity: 1, num_ms_combs: 3, mus: [0, 1], ns: [2, 1], ls: [1, 1], ms_combs: [-1, 1, 0, 0, 1, -1], ctildes: [0.33119901166054594, -0.33119901166054594, 0.33119901166054594]}
    - {mu0: 0, rank: 2, ndensity: 1, num_ms_combs: 3, mus: [0, 0], ns: [2, 2], ls: [1, 1], ms_combs: [-1, 1, 0, 0, 1, -1], ctildes: [-0.746245276726026, 0.746245276726026, -0.746245276726026]}
    - {mu0: 0, rank: 2, ndensity: 1, num_ms_combs: 3, mus: [0, 1], ns: [2, 2], ls: [1, 1], ms_combs: [-1, 1, 0, 0, 1, -1], ctildes: [-0.021954383929265953, 0.021954383929265953, -0.021954383929265953]}
    - {mu0: 0, rank: 2, ndensity: 1, num_ms_combs: 3, mus: [1, 1], ns: [2, 2], ls: [1, 1], ms_combs: [-1, 1, 0, 0, 1, -1], ctildes: [-108.20860601647814, 108.20860601647814, -108.20860601647814]}
    - {mu0: 0, rank: 2, ndensity: 1, num_ms_combs: 3, mus: [0, 0], ns: [2, 3], ls: [1, 1], ms_combs: [-1, 1, 0, 0, 1, -1], ctildes: [-0.2635729697258175, 0.2635729697258175, -0.2635729697258175]}
    - {mu0: 0, rank: 2, ndensity: 1, num_ms_combs: 3, mus: [0, 1], ns: [2, 3], ls: [1, 1], ms_combs: [-1, 1, 0, 0, 1, -1], ctildes: [0.18541495440541028, -0.18541495440541028, 0.18541495440541028]}
    - {mu0: 0, rank: 2, ndensity: 1, num_ms_combs: 3, mus: [1, 1], ns: [2, 3], ls: [1, 1], ms_combs: [-1, 1, 0, 0, 1, -1], ctildes: [93.29557373323206, -93.29557373323206, 93.29557373323206]}
    - {mu0: 0, rank: 2, ndensity: 1, num_ms_combs: 3, mus: [0, 1], ns: [3, 1], ls: [1, 1], ms_combs: [-1, 1, 0, 0, 1, -1], ctildes: [-0.6182667386899956, 0.6182667386899956, -0.6182667386899956]}
    - {mu0: 0, rank: 2, ndensity: 1, num_ms_combs: 3, mus: [0, 1], ns: [3, 2], ls: [1, 1], ms_combs: [-1, 1, 0, 0, 1, -1], ctildes: [0.1262837248960373, -0.1262837248960373, 0.1262837248960373]}
    - {mu0: 0, rank: 2, ndensity: 1, num_ms_combs: 3, mus: [0, 0], ns: [3, 3], ls: [1, 1], ms_combs: [-1, 1, 0, 0, 1, -1], ctildes: [0.6317210345497875, -0.6317210345497875, 0.6317210345497875]}
    - {mu0: 0, rank: 2, ndensity: 1, num_ms_combs: 3, mus: [0, 1], ns: [3, 3], ls: [1, 1], ms_combs: [-1, 1, 0, 0, 1, -1], ctildes: [0.6071779441835469, -0.6071779441835469, 0.6071779441835469]}
    - {mu0: 0, rank: 2, ndensity: 1, num_ms_combs: 3, mus: [1, 1], ns: [3, 3], ls: [1, 1], ms_combs: [-1, 1, 0, 0, 1, -1], ctildes: [-20.296854309512145, 20.296854309512145, -20.296854309512145]}
    - {mu0: 0, rank: 2, ndensity: 1, num_ms_combs: 5, mus: [0, 0], ns: [1, 1], ls: [2, 2], ms_combs: [-2, 2, -1, 1, 0, 0, 1, -1, 2, -2], ctildes: [-0.14029088317114935, 0.14029088317114935, -0.14029088317114935, 0.14029088317114935, -0.14029088317114935]}
    - {mu0: 0, rank: 2, ndensity: 1, num_ms_combs: 5, mus: [0, 1], ns: [1, 1], ls: [2, 2], ms_combs: [-2, 2, -1, 1, 0, 0, 1, -1, 2, -2], ctildes: [0.13884676513097433, -0.13884676513097433, 0.13884676513097433, -0.13884676513097433, 0.13884676513097433]}
    - {mu0: 0, rank: 2, ndensity: 1, num_ms_combs: 5, mus: [1, 1], ns: [1, 1], ls: [2, 2], ms_combs: [-2, 2, -1, 1, 0, 0, 1, -1, 2, -2], ctildes: [-0.13372031876022175, 0.13372031876022175, -0.13372031876022175, 0.13372031876022175, -0.13372031876022175]}
    - {mu0: 0, rank: 2, ndensity: 1, num_ms_combs: 5, mus: [0, 0], ns: [1, 2], ls: [2, 2], ms_combs: [-2, 2, -1, 1, 0, 0, 1, -1, 2, -2], ctildes: [0.5203877526489766, -0.5203877526489766, 0.5203877526489766, -0.5203877526489766, 0.5203877526489766]}
    - {mu0: 0, rank: 2, ndensity: 1, num_ms_combs: 5, mus: [0, 1], ns: [1, 2], ls: [2, 2], ms_combs: [-2, 2, -1, 1, 0, 0, 1, -1, 2, -2], ctildes: [0.04302159605880911, -0.04302159605880911, 0.04302159605880911, -0.04302159605880911, 0.04302159605880911]}
    - {mu0: 0, rank: 2, ndensity: 1, num_ms_combs: 5, mus: [1, 1], ns: [1, 2], ls: [2, 2], ms_combs: [-2, 2, -1, 1, 0, 0, 1, -1, 2, -2], ctildes: [-0.011413799897149343, 0.011413799897149343, -0.011413799897149343, 0.011413799897149343, -0.011413799897149343]}
    - {mu0: 0, rank: 2, ndensity: 1, num_ms_combs: 5, mus: [0, 0], ns: [1, 3], ls: [2, 2], ms_combs: [-2, 2, -1, 1, 0, 0, 1, -1, 2, -2], ctildes: [-0.08083799383435905, 0.08083799383435905, -0.08083799383435905, 0.08083799383435905, -0.08083799383435905]}
    - {mu0: 0, rank: 2, ndensity: 1, num_ms_combs: 5, mus: [0, 1], ns: [1, 3], ls: [2, 2], ms_combs: [-2, 2, -1, 1, 0, 0, 1, -1, 2, -2], ctildes: [0.014323853469108213, -0.014323853469108213, 0.014323853469108213, -0.014323853469108213, 0.014323853469108213]}
    - {mu0: 0, rank: 2, ndensity: 1, num_ms_combs: 5, mus: [1, 1], ns: [1, 3], ls: [2, 2], ms_combs: [-2, 2, -1, 1, 0, 0, 1, -1, 2, -2], ctildes: [0.11533521255413852, -0.11533521255413852, 0.11533521255413852, -0.11533521255413852, 0.11533521255413852]}
    - {mu0: 0, rank: 2, ndensity: 1, num_ms_combs: 5, mus: [0, 1], ns: [2, 1], ls: [2, 2], ms_combs: [-2, 2, -1, 1, 0, 0, 1, -1, 2, -2], ctildes: [0.16476710818765575, -0.16476710818765575, 0.16476710818765575, -0.16476710818765575, 0.16476710818765575]}
    - {mu0: 0, rank: 2, ndensity: 1, num_ms_combs: 5, mus: [0, 0], ns: [2, 2], ls: [2, 2], ms_combs: [-2, 2, -1, 1, 0, 0, 1, -1, 2, -2], ctildes: [-0.1284708540300762, 0.1284708540300762, -0.1284708540300762, 0.1284708540300762, -0.1284708540300762]}
    - {mu0: 0, rank: 2, ndensity: 1, num_ms_combs: 5, mus: [0, 1], ns: [2, 2], ls: [2, 2], ms_combs: [-2, 2, -1, 1, 0, 0, 1, -1, 2, -2], ctildes: [-0.10124561320358752, 0.10124561320358752, -0.10124561320358752, 0.10124561320358752, -0.10124561320358752]}
    - {mu0: 0, rank: 2, ndensity: 1, num_ms_combs: 5, mus: [1, 1], ns: [2, 2], ls: [2, 2], ms_combs: [-2, 2, -1, 1, 0, 0, 1, -1, 2, -2], ctildes: [0.2981929396556527, -0.2981929396556527, 0.2981929396556527, -0.2981929396556527, 0.2981929396556527]}
    - {mu0: 0, rank: 2, ndensity: 1, num_ms_combs: 5, mus: [0, 0], ns: [2, 3], ls: [2, 2], ms_combs: [-2, 2, -1, 1, 0, 0, 1, -1, 2, -2], ctildes: [0.15182901117154846, -0.15182901117154846, 0.15182901117154846, -0.15182901117154846, 0.15182901117154846]}
    - {mu0: 0, rank: 2, ndensity: 1, num_ms_combs: 5, mus: [0, 1], ns: [2, 3], ls: [2, 2], ms_combs: [-2, 2, -1, 1, 0, 0, 1, -1, 2, -2], ctildes: [0.22357691171502886, -0.22357691171502886, 0.22357691171502886, -0.22357691171502886, 0.22357691171502886]}
    - {mu0: 0, rank: 2, ndensity: 1, num_ms_combs: 5, mus: [1, 1], ns: [2, 3], ls: [2, 2], ms_combs: [-2, 2, -1, 1, 0, 0, 1, -1, 2, -2], ctildes: [0.24062434996627477, -0.24062434996627477, 0.24062434996627477, -0.24062434996627477, 0.24062434996627477]}
    - {mu0: 0, rank: 2, ndensity: 1, num_ms_combs: 5, mus: [0, 1], ns: [3, 1], ls: [2, 2], ms_combs: [-2, 2, -1, 1, 0, 0, 1, -1, 2, -2], ctildes: [-0.01769043332591672, 0.01769043332591672, -0.01769043332591672, 0.01769043332591672, -0.01769043332591672]}
    - {mu0: 0, rank: 2, ndensity: 1, num_ms_combs: 5, mus: [0, 1], ns: [3, 2], ls: [2, 2], ms_combs: [-2, 2, -1, 1, 0, 0, 1, -1, 2, -2], ctildes: [-0.6101847395889404, 0.6101847395889404, -0.6101847395889404, 0.6101847395889404, -0.6101847395889404]}
    - {mu0: 0, rank: 2, ndensity: 1, num_ms_combs: 5, mus: [0, 0], ns: [3, 3], ls: [2, 2], ms_combs: [-2, 2, -1, 1, 0, 0, 1, -1, 2, -2], ctildes: [0.14302560691059282, -0.14302560691059282, 0.14302560691059282, -0.14302560691059282, 0.14302560691059282]}
    - {mu0: 0, rank: 2, ndensity: 1, num_ms_combs: 5, mus: [0, 1], ns: [3, 3], ls: [2, 2], ms_combs: [-2, 2, -1, 1, 0, 0, 1, -1, 2, -2], ctildes: [-0.35755707143530924, 0.35755707143530924, -0.35755707143530924, 0.35755707143530924, -0.35755707143530924]}
    - {mu0: 0, rank: 2, ndensity: 1, num_ms_combs: 5, mus: [1, 1], ns: [3, 3], ls: [2, 2], ms_combs: [-2, 2, -1, 1, 0, 0, 1, -1, 2, -2], ctildes: [0.06426226390604711, -0.06426226390604711, 0.06426226390604711, -0.06426226390604711, 0.06426226390604711]}
    - {mu0: 0, rank: 3, ndensity: 1, num_ms_combs: 9, mus: [0, 0, 0], ns: [1, 1, 1], ls: [1, 1, 2], ms_combs: [-1, -1, 2, -1, 0, 1, -1, 1, 0, 0, -1, 1, 0, 0, 0, 0, 1, -1, 1, -1, 0, 1, 0, -1, 1, 1, -2], ctildes: [0.12631390574286233, -0.08931741977803212, 0.05156744003587239, -0.08931741977803212, 0.10313488007174478, -0.08931741977803212, 0.05156744003587239, -0.08931741977803212, 0.12631390574286233]}
    - {mu0: 0, rank: 3, ndensity: 1, num_ms_combs: 9, mus: [0, 0, 1], ns: [1, 1, 1], ls: [1, 1, 2], ms_combs: [-1, -1, 2, -1, 0, 1, -1, 1, 0, 0, -1, 1, 0, 0, 0, 0, 1, -1, 1, -1, 0, 1, 0, -1, 1, 1, -2], ctildes: [0.022012060641474422, -0.015564877429222928, 0.008986386815604907, -0.015564877429222928, 0.017972773631209814, -0.015564877429222928, 0.008986386815604907, -0.015564877429222928, 0.022012060641474422]}
    - {mu0: 0, rank: 3, ndensity: 1, num_ms_combs: 9, mus: [0, 1, 1], ns: [1, 1, 1], ls: [1, 1, 2], ms_combs: [-1, -1, 2, -1, 0, 1, -1, 1, 0, 0, -1, 1, 0, 0, 0, 0, 1, -1, 1, -1, 0, 1, 0, -1, 1, 1, -2], ctildes: [0.19735938801561567, -0.13955416232960843, 0.0805716389431401, -0.13955416232960843, 0.1611432778862802, -0.13955416232960843, 0.0805716389431401, -0.13955416232960843, 0.19735938801561567]}
    - {mu0: 0, rank: 3, ndensity: 1, num_ms_combs: 9, mus: [1, 1, 1], ns: [1, 1, 1], ls: [1, 1, 2], ms_combs: [-1, -1, 2, -1, 0, 1, -1, 1, 0, 0, -1, 1, 0, 0, 0, 0, 1, -1, 1, -1, 0, 1, 0, -1, 1, 1, -2], ctildes: [-0.8201698912640706, 0.5799476948837474, -0.33483298167571596, 0.5799476948837474, -0.6696659633514319, 0.5799476948837474, -0.33483298167571596, 0.5799476948837474, -0.8201698912640706]}
    - {mu0: 0, rank: 3, ndensity: 1, num_ms_combs: 9, mus: [0, 0, 0], ns: [1, 1, 2], ls: [1, 1, 2], ms_combs: [-1, -1, 2, -1, 0, 1, -1, 1, 0, 0, -1, 1, 0, 0, 0, 0, 1, -1, 1, -1, 0, 1, 0, -1, 1, 1, -2], ctildes: [-0.0048610043349594165, 0.0034372491466794666, -0.0019844968618690675, 0.0034372491466794666, -0.003968993723738135, 0.0034372491466794666, -0.0019844968618690675, 0.0034372491466794666, -0.0048610043349594165]}
    - {mu0: 0, rank: 3, ndensity: 1, num_ms_combs: 9, mus: [0, 0, 1], ns: [1, 1, 2], ls: [1, 1, 2], ms_combs: [-1, -1, 2, -1, 0, 1, -1, 1, 0, 0, -1, 1, 0, 0, 0, 0, 1, -1, 1, -1, 0, 1, 0, -1, 1, 1, -2], ctildes: [-0.35219895994118144, 0.24904227420923056, -0.14378463432550287, 0.24904227420923056, -0.28756926865100574, 0.24904227420923056, -0.14378463432550287, 0.24904227420923056, -0.35219895994118144]}
    - {mu0: 0, rank: 3, ndensity: 1, num_ms_combs: 9, mus: [0, 1, 1], ns: [1, 1, 2], ls: [1, 1, 2], ms_combs: [-1, -1, 2, -1, 0, 1, -1, 1, 0, 0, -1, 1, 0, 0, 0, 0, 1, -1, 1, -1, 0, 1, 0, -1, 1, 1, -2], ctildes: [-0.050995812008758155, 0.03605948467289196, -0.02081895466992838, 0.03605948467289196, -0.04163790933985676, 0.03605948467289196, -0.02081895466992838, 0.03605948467289196, -0.050995812008758155]}
    - {mu0: 0, rank: 3, ndensity: 1, num_ms_combs: 9, mus: [1, 1, 1], ns: [1, 1, 2], ls: [1, 1, 2], ms_combs: [-1, -1, 2, -1, 0, 1, -1, 1, 0, 0, -1, 1, 0, 0, 0, 0, 1, -1, 1, -1, 0, 1, 0, -1, 1, 1, -2], ctildes: [0.6926549006535425, -0.4897809798465478, 0.2827752007583144, -0.4897809798465478, 0.5655504015166288, -0.4897809798465478, 0.2827752007583144, -0.4897809798465478, 0.6926549006535425]}
    - {mu0: 0, rank: 3, ndensity: 1, num_ms_combs: 9, mus: [0, 0, 0], ns: [1, 2, 1], ls: [1, 1, 2], ms_combs: [-1, -1, 2, -1, 0, 1, -1, 1, 0, 0, -1, 1, 0, 0, 0, 0, 1, -1, 1, -1, 0, 1, 0, -1, 1, 1, -2], ctildes: [-0.14876512056405422, 0.10519282610735059, -0.0607331108083457, 0.10519282610735059, -0.1214662216166914, 0.10519282610735059, -0.0607331108083457, 0.10519282610735059, -0.14876512056405422]}
    - {mu0: 0, rank: 3, ndensity: 1, num_ms_combs: 9, mus: [0, 0, 1], ns: [1, 2, 1], ls: [1, 1, 2], ms_combs: [-1, -1, 2, -1, 0, 1, -1, 1, 0, 0, -1, 1, 0, 0, 0, 0, 1, -1, 1, -1, 0, 1, 0, -1, 1, 1, -2], ctildes: [-0.0016004072896459924, 0.0011316588531125455, -0.0006533635901481596, 0.0011316588531125455, -0.0013067271802963193, 0.0011316588531125455, -0.0006533635901481596, 0.0011316588531125455, -0.0016004072896459924]}
    - {mu0: 0, rank: 3, ndensity: 1, num_ms_combs: 9, mus: [0, 1, 1], ns: [1, 2, 1], ls: [1, 1, 2], ms_combs: [-1, -1, 2, -1, 0, 1, -1, 1, 0, 0, -1, 1, 0, 0, 0, 0, 1, -1, 1, -1, 0, 1, 0, -1, 1, 1, -2], ctildes: [0.03524783612497997, -0.024923984077026454, 0.01438986994408469, -0.024923984077026454, 0.02877973988816938, -0.024923984077026454, 0.01438986994408469, -0.024923984077026454, 0.03524783612497997]}
    - {mu0: 0, rank: 3, ndensity: 1, num_ms_combs: 9, mus: [1, 1, 1], ns: [1, 2, 1], ls: [1, 1, 2], ms_combs: [-1, -1, 2, -1, 0, 1, -1, 1, 0, 0, -1, 1, 0, 0, 0, 0, 1, -1, 1, -1, 0, 1, 0, -1, 1, 1, -2], ctildes: [2.908895254855926, -2.056899571272848, 1.1875516060027544, -2.056899571272848, 2.375103212005509, -2.056899571272848, 1.1875516060027544, -2.056899571272848, 2.908895254855926]}
    - {mu0: 0, rank: 3, ndensity: 1, num_ms_combs: 9, mus: [0, 0, 0], ns: [1, 2, 2], ls: [1, 1, 2], ms_combs: [-1, -1, 2, -1, 0, 1, -1, 1, 0, 0, -1, 1, 0, 0, 0, 0, 1, -1, 1, -1, 0, 1, 0, -1, 1, 1, -2], ctildes: [0.10217147991601211, -0.07224614667191463, 0.0417113352085783, -0.07224614667191463, 0.0834226704171566, -0.07224614667191463, 0.0417113352085783, -0.07224614667191463, 0.10217147991601211]}
    - {mu0: 0, rank: 3, ndensity: 1, num_ms_combs: 9, mus: [0, 0, 1], ns: [1, 2, 2], ls: [1, 1, 2], ms_combs: [-1, -1, 2, -1, 0, 1, -1, 1, 0, 0, -1, 1, 0, 0, 0, 0, 1, -1, 1, -1, 0, 1, 0, -1, 1, 1, -2], ctildes: [-0.041937142475283025, 0.02965403798360226, -0.01712076803540846, 0.02965403798360226, -0.03424153607081692, 0.02965403798360226, -0.01712076803540846, 0.02965403798360226, -0.041937142475283025]}
    - {mu0: 0, rank: 3, ndensity: 1, num_ms_combs: 9, mus: [0, 1, 1], ns: [1, 2, 2], ls: [1, 1, 2], ms_combs: [-1, -1, 2, -1, 0, 1, -1, 1, 0, 0, -1, 1, 0, 0, 0, 0, 1, -1, 1, -1, 0, 1, 0, -1, 1, 1, -2], ctildes: [-0.06720998442727544, 0.04752463600156848, -0.0274383633486948, 0.04752463600156848, -0.0548767266973896, 0.04752463600156848, -0.0274383633486948, 0.04752463600156848, -0.06720998442727544]}
    - {mu0: 0, rank: 3, ndensity: 1, num_ms_combs: 9, mus: [1, 1, 1], ns: [1, 2, 2], ls: [1, 1, 2], ms_combs: [-1, -1, 2, -1, 0, 1, -1, 1, 0, 0, -1, 1, 0, 0, 0, 0, 1, -1, 1, -1, 0, 1, 0, -1, 1, 1, -2], ctildes: [0.012529025912227395, -0.008859359230727384, 0.005114953802093056, -0.008859359230727384, 0.010229907604186112, -0.008859359230727384, 0.005114953802093056, -0.008859359230727384, 0.012529025912227395]}
    - {mu0: 0, rank: 3, ndensity: 1, num_ms_combs: 9, mus: [0, 1, 1], ns: [2, 1, 1], ls: [1, 1, 2], ms_combs: [-1, -1, 2, -1, 0, 1, -1, 1, 0, 0, -1, 1, 0, 0, 0, 0, 1, -1, 1, -1, 0, 1, 0, -1, 1, 1, -2], ctildes: [0.019390307698371415, -0.013711018134822518, 0.007916060576484746, -0.013711018134822518, 0.015832121152969492, -0.013711018134822518, 0.007916060576484746, -0.013711018134822518, 0.019390307698371415]}
    - {mu0: 0, rank: 3, ndensity: 1, num_ms_combs: 9, mus: [0, 1, 1], ns: [2, 1, 2], ls: [1, 1, 2], ms_combs: [-1, -1, 2, -1, 0, 1, -1, 1, 0, 0, -1, 1, 0, 0, 0, 0, 1, -1, 1, -1, 0, 1, 0, -1, 1, 1, -2], ctildes: [0.03398484301981339, -0.024030913083080897, 0.013874255128492004, -0.024030913083080897, 0.027748510256984008, -0.024030913083080897, 0.013874255128492004, -0.024030913083080897, 0.03398484301981339]}
    - {mu0: 0, rank: 3, ndensity: 1, num_ms_combs: 9, mus: [0, 0, 0], ns: [2, 2, 1], ls: [1, 1, 2], ms_combs: [-1, -1, 2, -1, 0, 1, -1, 1, 0, 0, -1, 1, 0, 0, 0, 0, 1, -1, 1, -1, 0, 1, 0, -1, 1, 1, -2], ctildes: [0.03356338142496304, -0.023732894729787325, 0.013702194139703392, -0.023732894729787325, 0.027404388279406784, -0.023732894729787325, 0.013702194139703392, -0.023732894729787325, 0.03356338142496304]}
    - {mu0: 0, rank: 3, ndensity: 1, num_ms_combs: 9, mus: [0, 0, 1], ns: [2, 2, 1], ls: [1, 1, 2], ms_combs: [-1, -1, 2, -1, 0, 1, -1, 1, 0, 0, -1, 1, 0, 0, 0, 0, 1, -1, 1, -1, 0, 1, 0, -1, 1, 1, -2], ctildes: [-0.020196205277117102, 0.0142808737806883, -0.008245066910527041, 0.0142808737806883, -0.016490133821054083, 0.0142808737806883, -0.008245066910527041, 0.0142808737806883, -0.020196205277117102]}
    - {mu0: 0, rank: 3, ndensity: 1, num_ms_combs: 9, mus: [0, 1, 1], ns: [2, 2, 1], ls: [1, 1, 2], ms_combs: [-1, -1, 2, -1, 0, 1, -1, 1, 0, 0, -1, 1, 0, 0, 0, 0, 1, -1, 1, -1, 0, 1, 0, -1, 1, 1, -2], ctildes: [-0.03163548713841399, 0.02236966759919801, -0.012915134532667712, 0.02236966759919801, -0.025830269065335424, 0.02236966759919801, -0.012915134532667712, 0.02236966759919801, -0.03163548713841399]}
    - {mu0: 0, rank: 3, ndensity: 1, num_ms_combs: 9, mus: [1, 1, 1], ns: [2, 2, 1], ls: [1, 1, 2], ms_combs: [-1, -1, 2, -1, 0, 1, -1, 1, 0, 0, -1, 1, 0, 0, 0, 0, 1, -1, 1, -1, 0, 1, 0, -1, 1, 1, -2], ctildes: [0.058020513247087624, -0.041026698580412115, 0.023686777161419533, -0.041026698580412115, 0.047373554322839066, -0.041026698580412115, 0.023686777161419533, -0.041026698580412115, 0.058020513247087624]}
    - {mu0: 0, rank: 3, ndensity: 1, num_ms_combs: 9, mus: [0, 0, 0], ns: [2, 2, 2], ls: [1, 1, 2], ms_combs: [-1, -1, 2, -1, 0, 1, -1, 1, 0, 0, -1, 1, 0, 0, 0, 0, 1, -1, 1, -1, 0, 1, 0, -1, 1, 1, -2], ctildes: [0.024652314654909833, -0.017431818955983294, 0.01006426608563924, -0.017431818955983294, 0.02012853217127848, -0.017431818955983294, 0.01006426608563924, -0.017431818955983294, 0.024652314654909833]}
    - {mu0: 0, rank: 3, ndensity: 1, num_ms_combs: 9, mus: [0, 0, 1], ns: [2, 2, 2], ls: [1, 1, 2], ms_combs: [-1, -1, 2, -1, 0, 1, -1, 1, 0, 0, -1, 1, 0, 0, 0, 0, 1, -1, 1, -1, 0, 1, 0, -1, 1, 1, -2], ctildes: [-0.034726333093102864, 0.02455522574484009, -0.01417696720652234, 0.02455522574484009, -0.02835393441304468, 0.02455522574484009, -0.01417696720652234, 0.02455522574484009, -0.034726333093102864]}
    - {mu0: 0, rank: 3, ndensity: 1, num_ms_combs: 9, mus: [0, 1, 1], ns: [2, 2, 2], ls: [1, 1, 2], ms_combs: [-1, -1, 2, -1, 0, 1, -1, 1, 0, 0, -1, 1, 0, 0, 0, 0, 1, -1, 1, -1, 0, 1, 0, -1, 1, 1, -2], ctildes: [0.0012533893390261493, -0.0008862801057470649, 0.0005116940941831735, -0.0008862801057470649, 0.001023388188366347, -0.0008862801057470649, 0.0005116940941831735, -0.0008862801057470649, 0.0012533893390261493]}
    - {mu0: 0, rank: 3, ndensity: 1, num_ms_combs: 9, mus: [1, 1, 1], ns: [2, 2, 2], ls: [1, 1, 2], ms_combs: [-1, -1, 2, -1, 0, 1, -1, 1, 0, 0, -1, 1, 0, 0, 0, 0, 1, -1, 1, -1, 0, 1, 0, -1, 1, 1, -2], ctildes: [-14.194186960955802, 10.036805906234903, -5.79475300571498, 10.036805906234903, -11.58950601142996, 10.036805906234903, -5.79475300571498, 10.036805906234903, -14.194186960955802]}
    - {mu0: 0, rank: 3, ndensity: 1, num_ms_combs: 9, mus: [0, 0, 1], ns: [1, 1, 1], ls: [1, 2, 1], ms_combs: [-1, 0, 1, -1, 1, 0, -1, 2, -1, 0, -1, 1, 0, 0, 0, 0, 1, -1, 1, -2, 1, 1, -1, 0, 1, 0, -1], ctildes: [-0.039924626511025296, 0.06915148229443197, -0.09779497012242702, 0.06915148229443197, -0.07984925302205059, 0.06915148229443197, -0.09779497012242702, 0.06915148229443197, -0.039924626511025296]}
    - {mu0: 0, rank: 3, ndensity: 1, num_ms_combs: 9, mus: [0, 0, 1], ns: [1, 1, 2], ls: [1, 2, 1], ms_combs: [-1, 0, 1, -1, 1, 0, -1, 2, -1, 0, -1, 1, 0, 0, 0, 0, 1, -1, 1, -2, 1, 1, -1, 0, 1, 0, -1], ctildes: [-0.1319491491897171, 0.22854263273917752, -0.3232081106413001, 0.22854263273917752, -0.2638982983794342, 0.22854263273917752, -0.3232081106413001, 0.22854263273917752, -0.1319491491897171]}
    - {mu0: 0, rank: 3, ndensity: 1, num_ms_combs: 9, mus: [0, 0, 1], ns: [1, 2, 1], ls: [1, 2, 1], ms_combs: [-1, 0, 1, -1, 1, 0, -1, 2, -1, 0, -1, 1, 0, 0, 0, 0, 1, -1, 1, -2, 1, 1, -1, 0, 1, 0, -1], ctildes: [-0.23588945407260292, 0.40857252358366314, -0.5778088395355511, 0.40857252358366314, -0.47177890814520584, 0.40857252358366314, -0.5778088395355511, 0.40857252358366314, -0.23588945407260292]}
    - {mu0: 0, rank: 3, ndensity: 1, num_ms_combs: 9, mus: [0, 0, 1], ns: [1, 2, 2], ls: [1, 2, 1], ms_combs: [-1, 0, 1, -1, 1, 0, -1, 2, -1, 0, -1, 1, 0, 0, 0, 0, 1, -1, 1, -2, 1, 1, -1, 0, 1, 0, -1], ctildes: [0.8466356537000038, -1.466415982639261, 2.0738254980371273, -1.466415982639261, 1.6932713074000076, -1.466415982639261, 2.0738254980371273, -1.466415982639261, 0.8466356537000038]}
    - {mu0: 0, rank: 3, ndensity: 1, num_ms_combs: 9, mus: [0, 0, 1], ns: [2, 1, 1], ls: [1, 2, 1], ms_combs: [-1, 0, 1, -1, 1, 0, -1, 2, -1, 0, -1, 1, 0, 0, 0, 0, 1, -1, 1, -2, 1, 1, -1, 0, 1, 0, -1], ctildes: [0.033264660405938166, -0.05761608250627694, 0.08148145029316797, -0.05761608250627694, 0.06652932081187633, -0.05761608250627694, 0.08148145029316797, -0.05761608250627694, 0.033264660405938166]}
    - {mu0: 0, rank: 3, ndensity: 1, num_ms_combs: 9, mus: [0, 0, 1], ns: [2, 1, 2], ls: [1, 2, 1], ms_combs: [-1, 0, 1, -1, 1, 0, -1, 2, -1, 0, -1, 1, 0, 0, 0, 0, 1, -1, 1, -2, 1, 1, -1, 0, 1, 0, -1], ctildes: [0.004994427350066639, -0.008650602013110492, 0.01223379944064143, -0.008650602013110492, 0.009988854700133278, -0.008650602013110492, 0.01223379944064143, -0.008650602013110492, 0.004994427350066639]}
    - {mu0: 0, rank: 3, ndensity: 1, num_ms_combs: 9, mus: [0, 0, 1], ns: [2, 2, 1], ls: [1, 2, 1], ms_combs: [-1, 0, 1, -1, 1, 0, -1, 2, -1, 0, -1, 1, 0, 0, 0, 0, 1, -1, 1, -2, 1, 1, -1, 0, 1, 0, -1], ctildes: [0.02803996458344225, -0.04856664379547657, 0.0686836105508561, -0.04856664379547657, 0.0560799291668845, -0.04856664379547657, 0.0686836105508561, -0.04856664379547657, 0.02803996458344225]}
    - {mu0: 0, rank: 3, ndensity: 1, num_ms_combs: 9, mus: [0, 0, 1], ns: [2, 2, 2], ls: [1, 2, 1], ms_combs: [-1, 0, 1, -1, 1, 0, -1, 2, -1, 0, -1, 1, 0, 0, 0, 0, 1, -1, 1, -2, 1, 1, -1, 0, 1, 0, -1], ctildes: [0.02980286485649989, -0.05162007666818059, 0.07300181699631605, -0.05162007666818059, 0.05960572971299978, -0.05162007666818059, 0.07300181699631605, -0.05162007666818059, 0.02980286485649989]}
    - {mu0: 0, rank: 3, ndensity: 1, num_ms_combs: 9, mus: [0, 1, 1], ns: [1, 1, 1], ls: [2, 1, 1], ms_combs: [-2, 1, 1, -1, 0, 1, -1, 1, 0, 0, -1, 1, 0, 0, 0, 0, 1, -1, 1, -1, 0, 1, 0, -1, 2, -1, -1], ctildes: [-0.03394287750602309, 0.02400123738410502, 0.02400123738410502, -0.013857120723499048, -0.027714241446998095, -0.013857120723499048, 0.02400123738410502, 0.02400123738410502, -0.03394287750602309]}
    - {mu0: 0, rank: 3, ndensity: 1, num_ms_combs: 9, mus: [0, 1, 1], ns: [1, 1, 2], ls: [2, 1, 1], ms_combs: [-2, 1, 1, -1, 0, 1, -1, 1, 0, 0, -1, 1, 0, 0, 0, 0, 1, -1, 1, -1, 0, 1, 0, -1, 2, -1, -1], ctildes: [0.3299179320697885, -0.2332871926805533, -0.2332871926805533, 0.1346884221211645, 0.269376844242329, 0.1346884221211645, -0.2332871926805533, -0.2332871926805533, 0.3299179320697885]}
    - {mu0: 0, rank: 3, ndensity: 1, num_ms_combs: 9, mus: [0, 1, 1], ns: [1, 2, 2], ls: [2, 1, 1], ms_combs: [-2, 1, 1, -1, 0, 1, -1, 1, 0, 0, -1, 1, 0, 0, 0, 0, 1, -1, 1, -1, 0, 1, 0, -1, 2, -1, -1], ctildes: [0.07133855329753078, -0.05044397170006684, -0.05044397170006684, 0.029123840343478233, 0.05824768068695647, 0.029123840343478233, -0.05044397170006684, -0.05044397170006684, 0.07133855329753078]}
    - {mu0: 0, rank: 3, ndensity: 1, num_ms_combs: 9, mus: [0, 1, 1], ns: [2, 1, 1], ls: [2, 1, 1], ms_combs: [-2, 1, 1, -1, 0, 1, -1, 1, 0, 0, -1, 1, 0, 0, 0, 0, 1, -1, 1, -1, 0, 1, 0, -1, 2, -1, -1], ctildes: [-0.030283093703147863, 0.0214133795982787, 0.0214133795982787, -0.012363020349441211, -0.024726040698882422, -0.012363020349441211, 0.0214133795982787, 0.0214133795982787, -0.030283093703147863]}
    - {mu0: 0, rank: 3, ndensity: 1, num_ms_combs: 9, mus: [0, 1, 1], ns: [2, 1, 2], ls: [2, 1, 1], ms_combs: [-2, 1, 1, -1, 0, 1, -1, 1, 0, 0, -1, 1, 0, 0, 0, 0, 1, -1, 1, -1, 0, 1, 0, -1, 2, -1, -1], ctildes: [-0.010325294414728016, 0.0073010852502026595, 0.0073010852502026595, -0.004215283491659407, -0.008430566983318814, -0.004215283491659407, 0.0073010852502026595, 0.0073010852502026595, -0.010325294414728016]}
    - {mu0: 0, rank: 3, ndensity: 1, num_ms_combs: 9, mus: [0, 1, 1], ns: [2, 2, 2], ls: [2, 1, 1], ms_combs: [-2, 1, 1, -1, 0, 1, -1, 1, 0, 0, -1, 1, 0, 0, 0, 0, 1, -1, 1, -1, 0, 1, 0, -1, 2, -1, -1], ctildes: [-0.03247747120651332, 0.022965038716138354, 0.022965038716138354, -0.013258871149706149, -0.026517742299412297, -0.013258871149706149, 0.022965038716138354, 0.022965038716138354, -0.03247747120651332]}
    - {mu0: 0, rank: 3, ndensity: 1, num_ms_combs: 19, mus: [0, 0, 0], ns: [1, 1, 1], ls: [2, 2, 2], ms_combs: [-2, 0, 2, -2, 1, 1, -2, 2, 0, -1, -1, 2, -1, 0, 1, -1, 1, 0, -1, 2, -1, 0, -2, 2, 0, -1, 1, 0, 0, 0, 0, 1, -1, 0, 2, -2, 1, -2, 1, 1, -1, 0, 1, 0, -1, 1, 1, -2, 2, -2, 0, 2, -1, -1, 2, 0, -2], ctildes: [0.009149659002948986, -0.011205998064510938, 0.009149659002948986, -0.011205998064510938, 0.004574829501474493, 0.004574829501474493, -0.011205998064510938, 0.009149659002948986, 0.004574829501474493, -0.009149659002948986, 0.004574829501474493, 0.009149659002948986, -0.011205998064510938, 0.004574829501474493, 0.004574829501474493, -0.011205998064510938, 0.009149659002948986, -0.011205998064510938, 0.009149659002948986]}
    - {mu0: 0, rank: 3, ndensity: 1, num_ms_combs: 19, mus: [0, 0, 1], ns: [1, 1, 1], ls: [2, 2, 2], ms_combs: [-2, 0, 2, -2, 1, 1, -2, 2, 0, -1, -1, 2, -1, 0, 1, -1, 1, 0, -1, 2, -1, 0, -2, 2, 0, -1, 1, 0, 0, 0, 0, 1, -1, 0, 2, -2, 1, -2, 1, 1, -1, 0, 1, 0, -1, 1, 1, -2, 2, -2, 0, 2, -1, -1, 2, 0, -2], ctildes: [0.011325152020726733, -0.013870422010662062, 0.011325152020726733, -0.013870422010662062, 0.005662576010363366, 0.005662576010363366, -0.013870422010662062, 0.011325152020726733, 0.005662576010363366, -0.011325152020726733, 0.005662576010363366, 0.011325152020726733, -0.013870422010662062, 0.005662576010363366, 0.005662576010363366, -0.013870422010662062, 0.011325152020726733, -0.013870422010662062, 0.011325152020726733]}
    - {mu0: 0, rank: 3, ndensity: 1, num_ms_combs: 19, mus: [0, 1, 1], ns: [1, 1, 1], ls: [2, 2, 2], ms_combs: [-2, 0, 2, -2, 1, 1, -2, 2, 0, -1, -1, 2, -1, 0, 1, -1, 1, 0, -1, 2, -1, 0, -2, 2, 0, -1, 1, 0, 0, 0, 0, 1, -1, 0, 2, -2, 1, -2, 1, 1, -1, 0, 1, 0, -1, 1, 1, -2, 2, -2, 0, 2, -1, -1, 2, 0, -2], ctildes: [0.06152308456391118, -0.07535008313683879, 0.06152308456391118, -0.07535008313683879, 0.03076154228195559, 0.03076154228195559, -0.07535008313683879, 0.06152308456391118, 0.03076154228195559, -0.06152308456391118, 0.03076154228195559, 0.06152308456391118, -0.07535008313683879, 0.03076154228195559, 0.03076154228195559, -0.07535008313683879, 0.06152308456391118, -0.07535008313683879, 0.06152308456391118]}
    - {mu0: 0, rank: 3, ndensity: 1, num_ms_combs: 19, mus: [1, 1, 1], ns: [1, 1, 1], ls: [2, 2, 2], ms_combs: [-2, 0, 2, -2, 1, 1, -2, 2, 0, -1, -1, 2, -1, 0, 1, -1, 1, 0, -1, 2, -1, 0, -2, 2, 0, -1, 1, 0, 0, 0, 0, 1, -1, 0, 2, -2, 1, -2, 1, 1, -1, 0, 1, 0, -1, 1, 1, -2, 2, -2, 0, 2, -1, -1, 2, 0, -2], ctildes: [0.16022446678632232, -0.1962340961686259, 0.16022446678632232, -0.1962340961686259, 0.08011223339316116, 0.08011223339316116, -0.1962340961686259, 0.16022446678632232, 0.08011223339316116, -0.16022446678632232, 0.08011223339316116, 0.16022446678632232, -0.1962340961686259, 0.08011223339316116, 0.08011223339316116, -0.1962340961686259, 0.16022446678632232, -0.1962340961686259, 0.16022446678632232]}
    - {mu0: 0, rank: 3, ndensity: 1, num_ms_combs: 19, mus: [0, 0, 0], ns: [1, 1, 2], ls: [2, 2, 2], ms_combs: [-2, 0, 2, -2, 1, 1, -2, 2, 0, -1, -1, 2, -1, 0, 1, -1, 1, 0, -1, 2, -1, 0, -2, 2, 0, -1, 1, 0, 0, 0, 0, 1, -1, 0, 2, -2, 1, -2, 1, 1, -1, 0, 1, 0, -1, 1, 1, -2, 2, -2, 0, 2, -1, -1, 2, 0, -2], ctildes: [0.021585733547732352, -0.026437016754282887, 0.021585733547732352, -0.026437016754282887, 0.010792866773866176, 0.010792866773866176, -0.026437016754282887, 0.021585733547732352, 0.010792866773866176, -0.021585733547732352, 0.010792866773866176, 0.021585733547732352, -0.026437016754282887, 0.010792866773866176, 0.010792866773866176, -0.026437016754282887, 0.021585733547732352, -0.026437016754282887, 0.021585733547732352]}
    - {mu0: 0, rank: 3, ndensity: 1, num_ms_combs: 19, mus: [0, 0, 1], ns: [1, 1, 2], ls: [2, 2, 2], ms_combs: [-2, 0, 2, -2, 1, 1, -2, 2, 0, -1, -1, 2, -1, 0, 1, -1, 1, 0, -1, 2, -1, 0, -2, 2, 0, -1, 1, 0, 0, 0, 0, 1, -1, 0, 2, -2, 1, -2, 1, 1, -1, 0, 1, 0, -1, 1, 1, -2, 2, -2, 0, 2, -1, -1, 2, 0, -2], ctildes: [-0.09256513519740474, 0.11336867587403948, -0.09256513519740474, 0.11336867587403948, -0.04628256759870237, -0.04628256759870237, 0.11336867587403948, -0.09256513519740474, -0.04628256759870237, 0.09256513519740474, -0.04628256759870237, -0.09256513519740474, 0.11336867587403948, -0.04628256759870237, -0.04628256759870237, 0.11336867587403948, -0.09256513519740474, 0.11336867587403948, -0.09256513519740474]}
    - {mu0: 0, rank: 3, ndensity: 1, num_ms_combs: 19, mus: [0, 1, 1], ns: [1, 1, 2], ls: [2, 2, 2], ms_combs: [-2, 0, 2, -2, 1, 1, -2, 2, 0, -1, -1, 2, -1, 0, 1, -1, 1, 0, -1, 2, -1, 0, -2, 2, 0, -1, 1, 0, 0, 0, 0, 1, -1, 0, 2, -2, 1, -2, 1, 1, -1, 0, 1, 0, -1, 1, 1, -2, 2, -2, 0, 2, -1, -1, 2, 0, -2], ctildes: [-0.0597954995212327, 0.07323423219219773, -0.0597954995212327, 0.07323423219219773, -0.02989774976061635, -0.02989774976061635, 0.07323423219219773, -0.0597954995212327, -0.02989774976061635, 0.0597954995212327, -0.02989774976061635, -0.0597954995212327, 0.07323423219219773, -0.02989774976061635, -0.02989774976061635, 0.07323423219219773, -0.0597954995212327, 0.07323423219219773, -0.0597954995212327]}
    - {mu0: 0, rank: 3, ndensity: 1, num_ms_combs: 19, mus: [1, 1, 1], ns: [1, 1, 2], ls: [2, 2, 2], ms_combs: [-2, 0, 2, -2, 1, 1, -2, 2, 0, -1, -1, 2, -1, 0, 1, -1, 1, 0, -1, 2, -1, 0, -2, 2, 0, -1, 1, 0, 0, 0, 0, 1, -1, 0, 2, -2, 1, -2, 1, 1, -1, 0, 1, 0, -1, 1, 1, -2, 2, -2, 0, 2, -1, -1, 2, 0, -2], ctildes: [-0.7302710599778554, 0.8943957454635892, -0.7302710599778554, 0.8943957454635892, -0.3651355299889277, -0.3651355299889277, 0.8943957454635892, -0.7302710599778554, -0.3651355299889277, 0.7302710599778554, -0.3651355299889277, -0.7302710599778554, 0.8943957454635892, -0.3651355299889277, -0.3651355299889277, 0.8943957454635892, -0.7302710599778554, 0.8943957454635892, -0.7302710599778554]}
    - {mu0: 0, rank: 3, ndensity: 1, num_ms_combs: 19, mus: [0, 0, 1], ns: [1, 2, 1], ls: [2, 2, 2], ms_combs: [-2, 0, 2, -2, 1, 1, -2, 2, 0, -1, -1, 2, -1, 0, 1, -1, 1, 0, -1, 2, -1, 0, -2, 2, 0, -1, 1, 0, 0, 0, 0, 1, -1, 0, 2, -2, 1, -2, 1, 1, -1, 0, 1, 0, -1, 1, 1, -2, 2, -2, 0, 2, -1, -1, 2, 0, -2], ctildes: [0.009664466472631174, -0.011836505879828976, 0.009664466472631174, -0.011836505879828976, 0.004832233236315587, 0.004832233236315587, -0.011836505879828976, 0.009664466472631174, 0.004832233236315587, -0.009664466472631174, 0.004832233236315587, 0.009664466472631174, -0.011836505879828976, 0.004832233236315587, 0.004832233236315587, -0.011836505879828976, 0.009664466472631174, -0.011836505879828976, 0.009664466472631174]}
    - {mu0: 0, rank: 3, ndensity: 1, num_ms_combs: 19, mus: [0, 0, 0], ns: [1, 2, 2], ls: [2, 2, 2], ms_combs: [-2, 0, 2, -2, 1, 1, -2, 2, 0, -1, -1, 2, -1, 0, 1, -1, 1, 0, -1, 2, -1, 0, -2, 2, 0, -1, 1, 0, 0, 0, 0, 1, -1, 0, 2, -2, 1, -2, 1, 1, -1, 0, 1, 0, -1, 1, 1, -2, 2, -2, 0, 2, -1, -1, 2, 0, -2], ctildes: [-0.006287138741590164, 0.0077001410158415206, -0.006287138741590164, 0.0077001410158415206, -0.003143569370795082, -0.003143569370795082, 0.0077001410158415206, -0.006287138741590164, -0.003143569370795082, 0.006287138741590164, -0.003143569370795082, -0.006287138741590164, 0.0077001410158415206, -0.003143569370795082, -0.003143569370795082, 0.0077001410158415206, -0.006287138741590164, 0.0077001410158415206, -0.006287138741590164]}
    - {mu0: 0, rank: 3, ndensity: 1, num_ms_combs: 19, mus: [0, 0, 1], ns: [1, 2, 2], ls: [2, 2, 2], ms_combs: [-2, 0, 2, -2, 1, 1, -2, 2, 0, -1, -1, 2, -1, 0, 1, -1, 1, 0, -1, 2, -1, 0, -2, 2, 0, -1, 1, 0, 0, 0, 0, 1, -1, 0, 2, -2, 1, -2, 1, 1, -1, 0, 1, 0, -1, 1, 1, -2, 2, -2, 0, 2, -1, -1, 2, 0, -2], ctildes: [-0.6593065284938818, 0.8074822985032133, -0.6593065284938818, 0.8074822985032133, -0.3296532642469409, -0.3296532642469409, 0.8074822985032133, -0.6593065284938818, -0.3296532642469409, 0.6593065284938818, -0.3296532642469409, -0.6593065284938818, 0.8074822985032133, -0.3296532642469409, -0.3296532642469409, 0.8074822985032133, -0.6593065284938818, 0.8074822985032133, -0.6593065284938818]}
    - {mu0: 0, rank: 3, ndensity: 1, num_ms_combs: 19, mus: [0, 1, 1], ns: [1, 2, 2], ls: [2, 2, 2], ms_combs: [-2, 0, 2, -2, 1, 1, -2, 2, 0, -1, -1, 2, -1, 0, 1, -1, 1, 0, -1, 2, -1, 0, -2, 2, 0, -1, 1, 0, 0, 0, 0, 1, -1, 0, 2, -2, 1, -2, 1, 1, -1, 0, 1, 0, -1, 1, 1, -2, 2, -2, 0, 2, -1, -1, 2, 0, -2], ctildes: [-0.03618632763725188, 0.0443190196852262, -0.03618632763725188, 0.0443190196852262, -0.01809316381862594, -0.01809316381862594, 0.0443190196852262, -0.03618632763725188, -0.01809316381862594, 0.03618632763725188, -0.01809316381862594, -0.03618632763725188, 0.0443190196852262, -0.01809316381862594, -0.01809316381862594, 0.0443190196852262, -0.03618632763725188, 0.0443190196852262, -0.03618632763725188]}
    - {mu0: 0, rank: 3, ndensity: 1, num_ms_combs: 19, mus: [1, 1, 1], ns: [1, 2, 2], ls: [2, 2, 2], ms_combs: [-2, 0, 2, -2, 1, 1, -2, 2, 0, -1, -1, 2, -1, 0, 1, -1, 1, 0, -1, 2, -1, 0, -2, 2, 0, -1, 1, 0, 0, 0, 0, 1, -1, 0, 2, -2, 1, -2, 1, 1, -1, 0, 1, 0, -1, 1, 1, -2, 2, -2, 0, 2, -1, -1, 2, 0, -2], ctildes: [-0.017181668697566734, 0.021043160855278326, -0.017181668697566734, 0.021043160855278326, -0.008590834348783367, -0.008590834348783367, 0.021043160855278326, -0.017181668697566734, -0.008590834348783367, 0.017181668697566734, -0.008590834348783367, -0.017181668697566734, 0.021043160855278326, -0.008590834348783367, -0.008590834348783367, 0.021043160855278326, -0.017181668697566734, 0.021043160855278326, -0.017181668697566734]}
    - {mu0: 0, rank: 3, ndensity: 1, num_ms_combs: 19, mus: [0, 1, 1], ns: [2, 1, 1], ls: [2, 2, 2], ms_combs: [-2, 0, 2, -2, 1, 1, -2, 2, 0, -1, -1, 2, -1, 0, 1, -1, 1, 0, -1, 2, -1, 0, -2, 2, 0, -1, 1, 0, 0, 0, 0, 1, -1, 0, 2, -2, 1, -2, 1, 1, -1, 0, 1, 0, -1, 1, 1, -2, 2, -2, 0, 2, -1, -1, 2, 0, -2], ctildes: [0.13544481602920325, -0.16588534564863, 0.13544481602920325, -0.16588534564863, 0.06772240801460162, 0.06772240801460162, -0.16588534564863, 0.13544481602920325, 0.06772240801460162, -0.13544481602920325, 0.06772240801460162, 0.13544481602920325, -0.16588534564863, 0.06772240801460162, 0.06772240801460162, -0.16588534564863, 0.13544481602920325, -0.16588534564863, 0.13544481602920325]}
    - {mu0: 0, rank: 3, ndensity: 1, num_ms_combs: 19, mus: [0, 1, 1], ns: [2, 1, 2], ls: [2, 2, 2], ms_combs: [-2, 0, 2, -2, 1, 1, -2, 2, 0, -1, -1, 2, -1, 0, 1, -1, 1, 0, -1, 2, -1, 0, -2, 2, 0, -1, 1, 0, 0, 0, 0, 1, -1, 0, 2, -2, 1, -2, 1, 1, -1, 0, 1, 0, -1, 1, 1, -2, 2, -2, 0, 2, -1, -1, 2, 0, -2], ctildes: [0.007993805112658002, -0.009790371924423802, 0.007993805112658002, -0.009790371924423802, 0.003996902556329001, 0.003996902556329001, -0.009790371924423802, 0.007993805112658002, 0.003996902556329001, -0.007993805112658002, 0.003996902556329001, 0.007993805112658002, -0.009790371924423802, 0.003996902556329001, 0.003996902556329001, -0.009790371924423802, 0.007993805112658002, -0.009790371924423802, 0.007993805112658002]}
    - {mu0: 0, rank: 3, ndensity: 1, num_ms_combs: 19, mus: [0, 0, 1], ns: [2, 2, 1], ls: [2, 2, 2], ms_combs: [-2, 0, 2, -2, 1, 1, -2, 2, 0, -1, -1, 2, -1, 0, 1, -1, 1, 0, -1, 2, -1, 0, -2, 2, 0, -1, 1, 0, 0, 0, 0, 1, -1, 0, 2, -2, 1, -2, 1, 1, -1, 0, 1, 0, -1, 1, 1, -2, 2, -2, 0, 2, -1, -1, 2, 0, -2], ctildes: [-0.0009075910785483949, 0.0011115675312383458, -0.0009075910785483949, 0.0011115675312383458, -0.00045379553927419746, -0.00045379553927419746, 0.0011115675312383458, -0.0009075910785483949, -0.00045379553927419746, 0.0009075910785483949, -0.00045379553927419746, -0.0009075910785483949, 0.0011115675312383458, -0.00045379553927419746, -0.00045379553927419746, 0.0011115675312383458, -0.0009075910785483949, 0.0011115675312383458, -0.0009075910785483949]}
    - {mu0: 0, rank: 3, ndensity: 1, num_ms_combs: 19, mus: [0, 0, 0], ns: [2, 2, 2], ls: [2, 2, 2], ms_combs: [-2, 0, 2, -2, 1, 1, -2, 2, 0, -1, -1, 2, -1, 0, 1, -1, 1, 0, -1, 2, -1, 0, -2, 2, 0, -1, 1, 0, 0, 0, 0, 1, -1, 0, 2, -2, 1, -2, 1, 1, -1, 0, 1, 0, -1, 1, 1, -2, 2, -2, 0, 2, -1, -1, 2, 0, -2], ctildes: [0.007352370847550072, -0.009004778589088162, 0.007352370847550072, -0.009004778589088162, 0.003676185423775036, 0.003676185423775036, -0.009004778589088162, 0.007352370847550072, 0.003676185423775036, -0.007352370847550072, 0.003676185423775036, 0.007352370847550072, -0.009004778589088162, 0.003676185423775036, 0.003676185423775036, -0.009004778589088162, 0.007352370847550072, -0.009004778589088162, 0.007352370847550072]}
    - {mu0: 0, rank: 3, ndensity: 1, num_ms_combs: 19, mus: [0, 0, 1], ns: [2, 2, 2], ls: [2, 2, 2], ms_combs: [-2, 0, 2, -2, 1, 1, -2, 2, 0, -1, -1, 2, -1, 0, 1, -1, 1, 0, -1, 2, -1, 0, -2, 2, 0, -1, 1, 0, 0, 0, 0, 1, -1, 0, 2, -2, 1, -2, 1, 1, -1, 0, 1, 0, -1, 1, 1, -2, 2, -2, 0, 2, -1, -1, 2, 0, -2], ctildes: [-0.021158878630133618, 0.025914228377262857, -0.021158878630133618, 0.025914228377262857, -0.010579439315066809, -0.010579439315066809, 0.025914228377262857, -0.021158878630133618, -0.010579439315066809, 0.021158878630133618, -0.010579439315066809, -0.021158878630133618, 0.025914228377262857, -0.010579439315066809, -0.010579439315066809, 0.025914228377262857, -0.021158878630133618, 0.025914228377262857, -0.021158878630133618]}
    - {mu0: 0, rank: 3, ndensity: 1, num_ms_combs: 19, mus: [0, 1, 1], ns: [2, 2, 2], ls: [2, 2, 2], ms_combs: [-2, 0, 2, -2, 1, 1, -2, 2, 0, -1, -1, 2, -1, 0, 1, -1, 1, 0, -1, 2, -1, 0, -2, 2, 0, -1, 1, 0, 0, 0, 0, 1, -1, 0, 2, -2, 1, -2, 1, 1, -1, 0, 1, 0, -1, 1, 1, -2, 2, -2, 0, 2, -1, -1, 2, 0, -2], ctildes: [-0.0023322377013298033, 0.0028563961956022347, -0.0023322377013298033, 0.0028563961956022347, -0.0011661188506649016, -0.0011661188506649016, 0.0028563961956022347, -0.0023322377013298033, -0.0011661188506649016, 0.0023322377013298033, -0.0011661188506649016, -0.0023322377013298033, 0.0028563961956022347, -0.0011661188506649016, -0.0011661188506649016, 0.0028563961956022347, -0.0023322377013298033, 0.0028563961956022347, -0.0023322377013298033]}
    - {mu0: 0, rank: 3, ndensity: 1, num_ms_combs: 19, mus: [1, 1, 1], ns: [2, 2, 2], ls: [2, 2, 2], ms_combs: [-2, 0, 2, -2, 1, 1, -2, 2, 0, -1, -1, 2, -1, 0, 1, -1, 1, 0, -1, 2, -1, 0, -2, 2, 0, -1, 1, 0, 0, 0, 0, 1, -1, 0, 2, -2, 1, -2, 1, 1, -1, 0, 1, 0, -1, 1, 1, -2, 2, -2, 0, 2, -1, -1, 2, 0, -2], ctildes: [1.6482612607763918, -2.0186995484875982, 1.6482612607763918, -2.0186995484875982, 0.8241306303881959, 0.8241306303881959, -2.0186995484875982, 1.6482612607763918, 0.8241306303881959, -1.6482612607763918, 0.8241306303881959, 1.6482612607763918, -2.0186995484875982, 0.8241306303881959, 0.8241306303881959, -2.0186995484875982, 1.6482612607763918, -2.0186995484875982, 1.6482612607763918]}
    - {mu0: 0, rank: 4, ndensity: 1, num_ms_combs: 19, mus: [0, 0, 0, 0], ns: [1, 1, 1, 1], ls: [1, 1, 1, 1], ms_combs: [-1, -1, 1, 1, -1, 0, 0, 1, -1, 0, 1, 0, -1, 1, -1, 1, -1, 1, 0, 0, -1, 1, 1, -1, 0, -1, 0, 1, 0, -1, 1, 0, 0, 0, -1, 1, 0, 0, 0, 0, 0, 0, 1, -1, 0, 1, -1, 0, 0, 1, 0, -1, 1, -1, -1, 1, 1, -1, 0, 0, 1, -1, 1, -1, 1, 0, -1, 0, 1, 0, 0, -1, 1, 1, -1, -1], ctildes: [-0.0006564942703726366, 0.00032824713863423136, 0.00032824713863423136, -0.0001094157285102281, -0.0002188314570204562, -0.0001094157285102281, 0.00032824713863423136, 0.00032824713863423136, -0.0002188314570204562, -0.0004376629140409124, -0.0002188314570204562, 0.00032824713863423136, 0.00032824713863423136, -0.0001094157285102281, -0.0002188314570204562, -0.0001094157285102281, 0.00032824713863423136, 0.00032824713863423136, -0.0006564942703726366]}
    - {mu0: 0, rank: 4, ndensity: 1, num_ms_combs: 19, mus: [0, 0, 0, 1], ns: [1, 1, 1, 1], ls: [1, 1, 1, 1], ms_combs: [-1, -1, 1, 1, -1, 0, 0, 1, -1, 0, 1, 0, -1, 1, -1, 1, -1, 1, 0, 0, -1, 1, 1, -1, 0, -1, 0, 1, 0, -1, 1, 0, 0, 0, -1, 1, 0, 0, 0, 0, 0, 0, 1, -1, 0, 1, -1, 0, 0, 1, 0, -1, 1, -1, -1, 1, 1, -1, 0, 0, 1, -1, 1, -1, 1, 0, -1, 0, 1, 0, 0, -1, 1, 1, -1, -1], ctildes: [-0.036364812448364904, 0.018182406415170733, 0.018182406415170733, -0.0060608030042930625, -0.012121606008586125, -0.0060608030042930625, 0.018182406415170733, 0.018182406415170733, -0.012121606008586125, -0.02424321201717225, -0.012121606008586125, 0.018182406415170733, 0.018182406415170733, -0.0060608030042930625, -0.012121606008586125, -0.0060608030042930625, 0.018182406415170733, 0.018182406415170733, -0.036364812448364904]}
    - {mu0: 0, rank: 4, ndensity: 1, num_ms_combs: 19, mus: [0, 0, 1, 1], ns: [1, 1, 1, 1], ls: [1, 1, 1, 1], ms_combs: [-1, -1, 1, 1, -1, 0, 0, 1, -1, 0, 1, 0, -1, 1, -1, 1, -1, 1, 0, 0, -1, 1, 1, -1, 0, -1, 0, 1, 0, -1, 1, 0, 0, 0, -1, 1, 0, 0, 0, 0, 0, 0, 1, -1, 0, 1, -1, 0, 0, 1, 0, -1, 1, -1, -1, 1, 1, -1, 0, 0, 1, -1, 1, -1, 1, 0, -1, 0, 1, 0, 0, -1, 1, 1, -1, -1], ctildes: [0.008393499966986073, -0.0041967500275757645, -0.0041967500275757645, 0.001398916875720894, 0.002797833751441788, 0.001398916875720894, -0.0041967500275757645, -0.0041967500275757645, 0.002797833751441788, 0.005595667502883576, 0.002797833751441788, -0.0041967500275757645, -0.0041967500275757645, 0.001398916875720894, 0.002797833751441788, 0.001398916875720894, -0.0041967500275757645, -0.0041967500275757645, 0.008393499966986073]}
    - {mu0: 0, rank: 4, ndensity: 1, num_ms_combs: 19, mus: [0, 1, 1, 1], ns: [1, 1, 1, 1], ls: [1, 1, 1, 1], ms_combs: [-1, -1, 1, 1, -1, 0, 0, 1, -1, 0, 1, 0, -1, 1, -1, 1, -1, 1, 0, 0, -1, 1, 1, -1, 0, -1, 0, 1, 0, -1, 1, 0, 0, 0, -1, 1, 0, 0, 0, 0, 0, 0, 1, -1, 0, 1, -1, 0, 0, 1, 0, -1, 1, -1, -1, 1, 1, -1, 0, 0, 1, -1, 1, -1, 1, 0, -1, 0, 1, 0, 0, -1, 1, 1, -1, -1], ctildes: [0.07654522881930129, -0.038272614811666786, -0.038272614811666786, 0.012757540093216705, 0.02551508018643341, 0.012757540093216705, -0.038272614811666786, -0.038272614811666786, 0.02551508018643341, 0.05103016037286682, 0.02551508018643341, -0.038272614811666786, -0.038272614811666786, 0.012757540093216705, 0.02551508018643341, 0.012757540093216705, -0.038272614811666786, -0.038272614811666786, 0.07654522881930129]}
    - {mu0: 0, rank: 4, ndensity: 1, num_ms_combs: 19, mus: [1, 1, 1, 1], ns: [1, 1, 1, 1], ls: [1, 1, 1, 1], ms_combs: [-1, -1, 1, 1, -1, 0, 0, 1, -1, 0, 1, 0, -1, 1, -1, 1, -1, 1, 0, 0, -1, 1, 1, -1, 0, -1, 0, 1, 0, -1, 1, 0, 0, 0, -1, 1, 0, 0, 0, 0, 0, 0, 1, -1, 0, 1, -1, 0, 0, 1, 0, -1, 1, -1, -1, 1, 1, -1, 0, 0, 1, -1, 1, -1, 1, 0, -1, 0, 1, 0, 0, -1, 1, 1, -1, -1], ctildes: [0.04359912165162395, -0.021799561054794903, -0.021799561054794903, 0.007266521389761288, 0.014533042779522576, 0.007266521389761288, -0.021799561054794903, -0.021799561054794903, 0.014533042779522576, 0.029066085559045152, 0.014533042779522576, -0.021799561054794903, -0.021799561054794903, 0.007266521389761288, 0.014533042779522576, 0.007266521389761288, -0.021799561054794903, -0.021799561054794903, 0.04359912165162395]}
  1:
    - {mu0: 1, rank: 1, ndensity: 1, num_ms_combs: 1, mus: [0], ns: [1], ls: [0], ms_combs: [0], ctildes: [1.876762150225674]}
    - {mu0: 1, rank: 1, ndensity: 1, num_ms_combs: 1, mus: [1], ns: [1], ls: [0], ms_combs: [0], ctildes: [-0.33067214878138573]}
    - {mu0: 1, rank: 1, ndensity: 1, num_ms_combs: 1, mus: [0], ns: [2], ls: [0], ms_combs: [0], ctildes: [0.3009139496185955]}
    - {mu0: 1, rank: 1, ndensity: 1, num_ms_combs: 1, mus: [1], ns: [2], ls: [0], ms_combs: [0], ctildes: [-2.468188723874278]}
    - {mu0: 1, rank: 1, ndensity: 1, num_ms_combs: 1, mus: [0], ns: [3], ls: [0], ms_combs: [0], ctildes: [-0.8892716057792021]}
    - {mu0: 1, rank: 1, ndensity: 1, num_ms_combs: 1, mus: [1], ns: [3], ls: [0], ms_combs: [0], ctildes: [0.30260916244781516]}
    - {mu0: 1, rank: 1, ndensity: 1, num_ms_combs: 1, mus: [0], ns: [4], ls: [0], ms_combs: [0], ctildes: [1.2774769437011053]}
    - {mu0: 1, rank: 1, ndensity: 1, num_ms_combs: 1, mus: [1], ns: [4], ls: [0], ms_combs: [0], ctildes: [-0.9726296372269614]}
    - {mu0: 1, rank: 1, ndensity: 1, num_ms_combs: 1, mus: [0], ns: [5], ls: [0], ms_combs: [0], ctildes: [-0.5374073928850036]}
    - {mu0: 1, rank: 1, ndensity: 1, num_ms_combs: 1, mus: [1], ns: [5], ls: [0], ms_combs: [0], ctildes: [0.46036449003554886]}
    - {mu0: 1, rank: 1, ndensity: 1, num_ms_combs: 1, mus: [0], ns: [6], ls: [0], ms_combs: [0], ctildes: [0.3924892850389887]}
    - {mu0: 1, rank: 1, ndensity: 1, num_ms_combs: 1, mus: [1], ns: [6], ls: [0], ms_combs: [0], ctildes: [-0.2575619910371492]}
    - {mu0: 1, rank: 1, ndensity: 1, num_ms_combs: 1, mus: [0], ns: [7], ls: [0], ms_combs: [0], ctildes: [-0.6460832556854542]}
    - {mu0: 1, rank: 1, ndensity: 1, num_ms_combs: 1, mus: [1], ns: [7], ls: [0], ms_combs: [0], ctildes: [1.233628274027379]}
    - {mu0: 1, rank: 1, ndensity: 1, num_ms_combs: 1, mus: [0], ns: [8], ls: [0], ms_combs: [0], ctildes: [-0.8687936977829391]}
    - {mu0: 1, rank: 1, ndensity: 1, num_ms_combs: 1, mus: [1], ns: [8], ls: [0], ms_combs: [0], ctildes: [0.03761275420436631]}
    - {mu0: 1, rank: 1, ndensity: 1, num_ms_combs: 1, mus: [0], ns: [9], ls: [0], ms_combs: [0], ctildes: [0.6016035579485746]}
    - {mu0: 1, rank: 1, ndensity: 1, num_ms_combs: 1, mus: [1], ns: [9], ls: [0], ms_combs: [0], ctildes: [-0.41427670277456735]}
    - {mu0: 1, rank: 1, ndensity: 1, num_ms_combs: 1, mus: [0], ns: [10], ls: [0], ms_combs: [0], ctildes: [-0.4010268479254344]}
    - {mu0: 1, rank: 1, ndensity: 1, num_ms_combs: 1, mus: [1], ns: [10], ls: [0], ms_combs: [0], ctildes: [1.0685402830730766]}
    - {mu0: 1, rank: 1, ndensity: 1, num_ms_combs: 1, mus: [0], ns: [11], ls: [0], ms_combs: [0], ctildes: [-0.9014543045907786]}
    - {mu0: 1, rank: 1, ndensity: 1, num_ms_combs: 1, mus: [1], ns: [11], ls: [0], ms_combs: [0], ctildes: [0.3749284401391812]}
    - {mu0: 1, rank: 1, ndensity: 1, num_ms_combs: 1, mus: [0], ns: [12], ls: [0], ms_combs: [0], ctildes: [0.15260418636673453]}
    - {mu0: 1, rank: 1, ndensity: 1, num_ms_combs: 1, mus: [1], ns: [12], ls: [0], ms_combs: [0], ctildes: [0.22076285828221126]}
    - {mu0: 1, rank: 1, ndensity: 1, num_ms_combs: 1, mus: [0], ns: [13], ls: [0], ms_combs: [0], ctildes: [-0.2316848278457708]}
    - {mu0: 1, rank: 1, ndensity: 1, num_ms_combs: 1, mus: [1], ns: [13], ls: [0], ms_combs: [0], ctildes: [-0.01848513641042906]}
    - {mu0: 1, rank: 1, ndensity: 1, num_ms_combs: 1, mus: [0], ns: [14], ls: [0], ms_combs: [0], ctildes: [-0.017481847673638636]}
    - {mu0: 1, rank: 1, ndensity: 1, num_ms_combs: 1, mus: [1], ns: [14], ls: [0], ms_combs: [0], ctildes: [-0.3408969570514778]}
    - {mu0: 1, rank: 1, ndensity: 1, num_ms_combs: 1, mus: [0], ns: [15], ls: [0], ms_combs: [0], ctildes: [0.2449905791729411]}
    - {mu0: 1, rank: 1, ndensity: 1, num_ms_combs: 1, mus: [1], ns: [15], ls: [0], ms_combs: [0], ctildes: [-0.17703403769762796]}
    - {mu0: 1, rank: 1, ndensity: 1, num_ms_combs: 1, mus: [0], ns: [16], ls: [0], ms_combs: [0], ctildes: [-0.07749828617714517]}
    - {mu0: 1, rank: 1, ndensity: 1, num_ms_combs: 1, mus: [1], ns: [16], ls: [0], ms_combs: [0], ctildes: [0.1973920371337618]}
    - {mu0: 1, rank: 1, ndensity: 1, num_ms_combs: 1, mus: [0], ns: [17], ls: [0], ms_combs: [0], ctildes: [-0.26004499569583733]}
    - {mu0: 1, rank: 1, ndensity: 1, num_ms_combs: 1, mus: [1], ns: [17], ls: [0], ms_combs: [0], ctildes: [0.2669165633351615]}
    - {mu0: 1, rank: 1, ndensity: 1, num_ms_combs: 1, mus: [0], ns: [18], ls: [0], ms_combs: [0], ctildes: [0.13955801928462835]}
    - {mu0: 1, rank: 1, ndensity: 1, num_ms_combs: 1, mus: [1], ns: [18], ls: [0], ms_combs: [0], ctildes: [-0.00029194521808293826]}
    - {mu0: 1, rank: 1, ndensity: 1, num_ms_combs: 1, mus: [0], ns: [19], ls: [0], ms_combs: [0], ctildes: [0.16533096597666927]}
    - {mu0: 1, rank: 1, ndensity: 1, num_ms_combs: 1, mus: [1], ns: [19], ls: [0], ms_combs: [0], ctildes: [-0.15034916264271586]}
    - {mu0: 1, rank: 1, ndensity: 1, num_ms_combs: 1, mus: [0], ns: [20], ls: [0], ms_combs: [0], ctildes: [-0.2524824279941481]}
    - {mu0: 1, rank: 1, ndensity: 1, num_ms_combs: 1, mus: [1], ns: [20], ls: [0], ms_combs: [0], ctildes: [0.0015369874445523937]}
    - {mu0: 1, rank: 1, ndensity: 1, num_ms_combs: 1, mus: [0], ns: [21], ls: [0], ms_combs: [0], ctildes: [0.17313955044998836]}
    - {mu0: 1, rank: 1, ndensity: 1, num_ms_combs: 1, mus: [1], ns: [21], ls: [0], ms_combs: [0], ctildes: [0.10424808010367426]}
    - {mu0: 1, rank: 1, ndensity: 1, num_ms_combs: 1, mus: [0], ns: [22], ls: [0], ms_combs: [0], ctildes: [-0.0111034332610593]}
    - {mu0: 1, rank: 1, ndensity: 1, num_ms_combs: 1, mus: [1], ns: [22], ls: [0], ms_combs: [0], ctildes: [-0.14243807808967932]}
    - {mu0: 1, rank: 2, ndensity: 1, num_ms_combs: 1, mus: [0, 0], ns: [1, 1], ls: [0, 0], ms_combs: [0, 0], ctildes: [-0.22116705005423348]}
    - {mu0: 1, rank: 2, ndensity: 1, num_ms_combs: 1, mus: [0, 1], ns: [1, 1], ls: [0, 0], ms_combs: [0, 0], ctildes: [-0.7594980320398671]}
    - {mu0: 1, rank: 2, ndensity: 1, num_ms_combs: 1, mus: [1, 1], ns: [1, 1], ls: [0, 0], ms_combs: [0, 0], ctildes: [-0.0943081643016994]}
    - {mu0: 1, rank: 2, ndensity: 1, num_ms_combs: 1, mus: [0, 0], ns: [1, 2], ls: [0, 0], ms_combs: [0, 0], ctildes: [-0.10280436555418243]}
    - {mu0: 1, rank: 2, ndensity: 1, num_ms_combs: 1, mus: [0, 1], ns: [1, 2], ls: [0, 0], ms_combs: [0, 0], ctildes: [0.07611714899776392]}
    - {mu0: 1, rank: 2, ndensity: 1, num_ms_combs: 1, mus: [1, 1], ns: [1, 2], ls: [0, 0], ms_combs: [0, 0], ctildes: [-3.175023688269165]}
    - {mu0: 1, rank: 2, ndensity: 1, num_ms_combs: 1, mus: [0, 0], ns: [1, 3], ls: [0, 0], ms_combs: [0, 0], ctildes: [0.24281222900091134]}
    - {mu0: 1, rank: 2, ndensity: 1, num_ms_combs: 1, mus: [0, 1], ns: [1, 3], ls: [0, 0], ms_combs: [0, 0], ctildes: [0.38992510697948135]}
    - {mu0: 1, rank: 2, ndensity: 1, num_ms_combs: 1, mus: [1, 1], ns: [1, 3], ls: [0, 0], ms_combs: [0, 0], ctildes: [0.5746262176972388]}
    - {mu0: 1, rank: 2, ndensity: 1, num_ms_combs: 1, mus: [0, 1], ns: [2, 1], ls: [0, 0], ms_combs: [0, 0], ctildes: [-0.03686137088114333]}
    - {mu0: 1, rank: 2, ndensity: 1, num_ms_combs: 1, mus: [0, 0], ns: [2, 2], ls: [0, 0], ms_combs: [0, 0], ctildes: [-0.21208866912327762]}
    - {mu0: 1, rank: 2, ndensity: 1, num_ms_combs: 1, mus: [0, 1], ns: [2, 2], ls: [0, 0], ms_combs: [0, 0], ctildes: [0.2888681290673821]}
    - {mu0: 1, rank: 2, ndensity: 1, num_ms_combs: 1, mus: [1, 1], ns: [2, 2], ls: [0, 0], ms_combs: [0, 0], ctildes: [0.09146813633737037]}
    - {mu0: 1, rank: 2, ndensity: 1, num_ms_combs: 1, mus: [0, 0], ns: [2, 3], ls: [0, 0], ms_combs: [0, 0], ctildes: [-7.996382382110841]}
    - {mu0: 1, rank: 2, ndensity: 1, num_ms_combs: 1, mus: [0, 1], ns: [2, 3], ls: [0, 0], ms_combs: [0, 0], ctildes: [1.2468455120797497]}
    - {mu0: 1, rank: 2, ndensity: 1, num_ms_combs: 1, mus: [1, 1], ns: [2, 3], ls: [0, 0], ms_combs: [0, 0], ctildes: [0.13363489174808657]}
    - {mu0: 1, rank: 2, ndensity: 1, num_ms_combs: 1, mus: [0, 1], ns: [3, 1], ls: [0, 0], ms_combs: [0, 0], ctildes: [0.4883171589459645]}
    - {mu0: 1, rank: 2, ndensity: 1, num_ms_combs: 1, mus: [0, 1], ns: [3, 2], ls: [0, 0], ms_combs: [0, 0], ctildes: [-0.08510951202779246]}
    - {mu0: 1, rank: 2, ndensity: 1, num_ms_combs: 1, mus: [0, 0], ns: [3, 3], ls: [0, 0], ms_combs: [0, 0], ctildes: [2.434681342215389]}
    - {mu0: 1, rank: 2, ndensity: 1, num_ms_combs: 1, mus: [0, 1], ns: [3, 3], ls: [0, 0], ms_combs: [0, 0], ctildes: [1.332605622931908]}
    - {mu0: 1, rank: 2, ndensity: 1, num_ms_combs: 1, mus: [1, 1], ns: [3, 3], ls: [0, 0], ms_combs: [0, 0], ctildes: [0.282340434610468]}
    - {mu0: 1, rank: 2, ndensity: 1, num_ms_combs: 3, mus: [0, 0], ns: [1, 1], ls: [1, 1], ms_combs: [-1, 1, 0, 0, 1, -1], ctildes: [0.7699609465080158, -0.7699609465080158, 0.7699609465080158]}
    - {mu0: 1, rank: 2, ndensity: 1, num_ms_combs: 3, mus: [0, 1], ns: [1, 1], ls: [1, 1], ms_combs: [-1, 1, 0, 0, 1, -1], ctildes: [-0.2064109903718272, 0.2064109903718272, -0.2064109903718272]}
    - {mu0: 1, rank: 2, ndensity: 1, num_ms_combs: 3, mus: [1, 1], ns: [1, 1], ls: [1, 1], ms_combs: [-1, 1, 0, 0, 1, -1], ctildes: [0.19311799828611848, -0.19311799828611848, 0.19311799828611848]}
    - {mu0: 1, rank: 2, ndensity: 1, num_ms_combs: 3, mus: [0, 0], ns: [1, 2], ls: [1, 1], ms_combs: [-1, 1, 0, 0, 1, -1], ctildes: [-1.1026191124482474, 1.1026191124482474, -1.1026191124482474]}
    - {mu0: 1, rank: 2, ndensity: 1, num_ms_combs: 3, mus: [0, 1], ns: [1, 2], ls: [1, 1], ms_combs: [-1, 1, 0, 0, 1, -1], ctildes: [-0.4477939076928584, 0.4477939076928584, -0.4477939076928584]}
    - {mu0: 1, rank: 2, ndensity: 1, num_ms_combs: 3, mus: [1, 1], ns: [1, 2], ls: [1, 1], ms_combs: [-1, 1, 0, 0, 1, -1], ctildes: [0.07748120810491864, -0.07748120810491864, 0.07748120810491864]}
    - {mu0: 1, rank: 2, ndensity: 1, num_ms_combs: 3, mus: [0, 0], ns: [1, 3], ls: [1, 1], ms_combs: [-1, 1, 0, 0, 1, -1], ctildes: [-0.2220513497438043, 0.2220513497438043, -0.2220513497438043]}
    - {mu0: 1, rank: 2, ndensity: 1, num_ms_combs: 3, mus: [0, 1], ns: [1, 3], ls: [1, 1], ms_combs: [-1, 1, 0, 0, 1, -1], ctildes: [-0.2845508802693112, 0.2845508802693112, -0.2845508802693112]}
    - {mu0: 1, rank: 2, ndensity: 1, num_ms_combs: 3, mus: [1, 1], ns: [1, 3], ls: [1, 1], ms_combs: [-1, 1, 0, 0, 1, -1], ctildes: [0.02707737292220319, -0.02707737292220319, 0.02707737292220319]}
    - {mu0: 1, rank: 2, ndensity: 1, num_ms_combs: 3, mus: [0, 1], ns: [2, 1], ls: [1, 1], ms_combs: [-1, 1, 0, 0, 1, -1], ctildes: [0.05674097077390369, -0.05674097077390369, 0.05674097077390369]}
    - {mu0: 1, rank: 2, ndensity: 1, num_ms_combs: 3, mus: [0, 0], ns: [2, 2], ls: [1, 1], ms_combs: [-1, 1, 0, 0, 1, -1], ctildes: [0.667353975193071, -0.667353975193071, 0.667353975193071]}
    - {mu0: 1, rank: 2, ndensity: 1, num_ms_combs: 3, mus: [0, 1], ns: [2, 2], ls: [1, 1], ms_combs: [-1, 1, 0, 0, 1, -1], ctildes: [0.6170704683899976, -0.6170704683899976, 0.6170704683899976]}
    - {mu0: 1, rank: 2, ndensity: 1, num_ms_combs: 3, mus: [1, 1], ns: [2, 2], ls: [1, 1], ms_combs: [-1, 1, 0, 0, 1, -1], ctildes: [-0.0397229153588326, 0.0397229153588326, -0.0397229153588326]}
    - {mu0: 1, rank: 2, ndensity: 1, num_ms_combs: 3, mus: [0, 0], ns: [2, 3], ls: [1, 1], ms_combs: [-1, 1, 0, 0, 1, -1], ctildes: [0.5028438914830294, -0.5028438914830294, 0.5028438914830294]}
    - {mu0: 1, rank: 2, ndensity: 1, num_ms_combs: 3, mus: [0, 1], ns: [2, 3], ls: [1, 1], ms_combs: [-1, 1, 0, 0, 1, -1], ctildes: [0.8434134653839661, -0.8434134653839661, 0.8434134653839661]}
    - {mu0: 1, rank: 2, ndensity: 1, num_ms_combs: 3, mus: [1, 1], ns: [2, 3], ls: [1, 1], ms_combs: [-1, 1, 0, 0, 1, -1], ctildes: [-0.008892467454788893, 0.008892467454788893, -0.008892467454788893]}
    - {mu0: 1, rank: 2, ndensity: 1, num_ms_combs: 3, mus: [0, 1], ns: [3, 1], ls: [1, 1], ms_combs: [-1, 1, 0, 0, 1, -1], ctildes: [-0.8642194828709061, 0.8642194828709061, -0.8642194828709061]}
    - {mu0: 1, rank: 2, ndensity: 1, num_ms_combs: 3, mus: [0, 1], ns: [3, 2], ls: [1, 1], ms_combs: [-1, 1, 0, 0, 1, -1], ctildes: [1.4273793477160401, -1.4273793477160401, 1.4273793477160401]}
    - {mu0: 1, rank: 2, ndensity: 1, num_ms_combs: 3, mus: [0, 0], ns: [3, 3], ls: [1, 1], ms_combs: [-1, 1, 0, 0, 1, -1], ctildes: [-0.1264569490330828, 0.1264569490330828, -0.1264569490330828]}
    - {mu0: 1, rank: 2, ndensity: 1, num_ms_combs: 3, mus: [0, 1], ns: [3, 3], ls: [1, 1], ms_combs: [-1, 1, 0, 0, 1, -1], ctildes: [0.027332769757246946, -0.027332769757246946, 0.027332769757246946]}
    - {mu0: 1, rank: 2, ndensity: 1, num_ms_combs: 3, mus: [1, 1], ns: [3, 3], ls: [1, 1], ms_combs: [-1, 1, 0, 0, 1, -1], ctildes: [-0.027393207290447242, 0.027393207290447242, -0.027393207290447242]}
    - {mu0: 1, rank: 2, ndensity: 1, num_ms_combs: 5, mus: [0, 0], ns: [1, 1], ls: [2, 2], ms_combs: [-2, 2, -1, 1, 0, 0, 1, -1, 2, -2], ctildes: [-0.707540225172161, 0.707540225172161, -0.707540225172161, 0.707540225172161, -0.707540225172161]}
    - {mu0: 1, rank: 2, ndensity: 1, num_ms_combs: 5, mus: [0, 1], ns: [1, 1], ls: [2, 2], ms_combs: [-2, 2, -1, 1, 0, 0, 1, -1, 2, -2], ctildes: [0.24611284886935364, -0.24611284886935364, 0.24611284886935364, -0.24611284886935364, 0.24611284886935364]}
    - {mu0: 1, rank: 2, ndensity: 1, num_ms_combs: 5, mus: [1, 1], ns: [1, 1], ls: [2, 2], ms_combs: [-2, 2, -1, 1, 0, 0, 1, -1, 2, -2], ctildes: [-0.2988331307986624, 0.2988331307986624, -0.2988331307986624, 0.2988331307986624, -0.2988331307986624]}
    - {mu0: 1, rank: 2, ndensity: 1, num_ms_combs: 5, mus: [0, 0], ns: [1, 2], ls: [2, 2], ms_combs: [-2, 2, -1, 1, 0, 0, 1, -1, 2, -2], ctildes: [-0.633501971159044, 0.633501971159044, -0.633501971159044, 0.633501971159044, -0.633501971159044]}
    - {mu0: 1, rank: 2, ndensity: 1, num_ms_combs: 5, mus: [0, 1], ns: [1, 2], ls: [2, 2], ms_combs: [-2, 2, -1, 1, 0, 0, 1, -1, 2, -2], ctildes: [-0.192324174666528, 0.192324174666528, -0.192324174666528, 0.192324174666528, -0.192324174666528]}
    - {mu0: 1, rank: 2, ndensity: 1, num_ms_combs: 5, mus: [1, 1], ns: [1, 2], ls: [2, 2], ms_combs: [-2, 2, -1, 1, 0, 0, 1, -1, 2, -2], ctildes: [0.4812280631003812, -0.4812280631003812, 0.4812280631003812, -0.4812280631003812, 0.4812280631003812]}
    - {mu0: 1, rank: 2, ndensity: 1, num_ms_combs: 5, mus: [0, 0], ns: [1, 3], ls: [2, 2], ms_combs: [-2, 2, -1, 1, 0, 0, 1, -1, 2, -2], ctildes: [0.8959955186671106, -0.8959955186671106, 0.8959955186671106, -0.8959955186671106, 0.8959955186671106]}
    - {mu0: 1, rank: 2, ndensity: 1, num_ms_combs: 5, mus: [0, 1], ns: [1, 3], ls: [2, 2], ms_combs: [-2, 2, -1, 1, 0, 0, 1, -1, 2, -2], ctildes: [0.4275730935177618, -0.4275730935177618, 0.4275730935177618, -0.4275730935177618, 0.4275730935177618]}
    - {mu0: 1, rank: 2, ndensity: 1, num_ms_combs: 5, mus: [1, 1], ns: [1, 3], ls: [2, 2], ms_combs: [-2, 2, -1, 1, 0, 0, 1, -1, 2, -2], ctildes: [-0.3803828290792409, 0.3803828290792409, -0.3803828290792409, 0.3803828290792409, -0.3803828290792409]}
    - {mu0: 1, rank: 2, ndensity: 1, num_ms_combs: 5, mus: [0, 1], ns: [2, 1], ls: [2, 2], ms_combs: [-2, 2, -1, 1, 0, 0, 1, -1, 2, -2], ctildes: [0.21733896773451167, -0.21733896773451167, 0.21733896773451167, -0.21733896773451167, 0.21733896773451167]}
    - {mu0: 1, rank: 2, ndensity: 1, num_ms_combs: 5, mus: [0, 0], ns: [2, 2], ls: [2, 2], ms_combs: [-2, 2, -1, 1, 0, 0, 1, -1, 2, -2], ctildes: [0.0869827042012516, -0.0869827042012516, 0.0869827042012516, -0.0869827042012516, 0.0869827042012516]}
    - {mu0: 1, rank: 2, ndensity: 1, num_ms_combs: 5, mus: [0, 1], ns: [2, 2], ls: [2, 2], ms_combs: [-2, 2, -1, 1, 0, 0, 1, -1, 2, -2], ctildes: [-0.07341963783541813, 0.07341963783541813, -0.07341963783541813, 0.07341963783541813, -0.07341963783541813]}
    - {mu0: 1, rank: 2, ndensity: 1, num_ms_combs: 5, mus: [1, 1], ns: [2, 2], ls: [2, 2], ms_combs: [-2, 2, -1, 1, 0, 0, 1, -1, 2, -2], ctildes: [0.10429487811324344, -0.10429487811324344, 0.10429487811324344, -0.10429487811324344, 0.10429487811324344]}
    - {mu0: 1, rank: 2, ndensity: 1, num_ms_combs: 5, mus: [0, 0], ns: [2, 3], ls: [2, 2], ms_combs: [-2, 2, -1, 1, 0, 0, 1, -1, 2, -2], ctildes: [-0.08429421862993461, 0.08429421862993461, -0.08429421862993461, 0.08429421862993461, -0.08429421862993461]}
    - {mu0: 1, rank: 2, ndensity: 1, num_ms_combs: 5, mus: [0, 1], ns: [2, 3], ls: [2, 2], ms_combs: [-2, 2, -1, 1, 0, 0, 1, -1, 2, -2], ctildes: [-0.1500533113326683, 0.1500533113326683, -0.1500533113326683, 0.1500533113326683, -0.1500533113326683]}
    - {mu0: 1, rank: 2, ndensity: 1, num_ms_combs: 5, mus: [1, 1], ns: [2, 3], ls: [2, 2], ms_combs: [-2, 2, -1, 1, 0, 0, 1, -1, 2, -2], ctildes: [0.33911602177202893, -0.33911602177202893, 0.33911602177202893, -0.33911602177202893, 0.33911602177202893]}
    - {mu0: 1, rank: 2, ndensity: 1, num_ms_combs: 5, mus: [0, 1], ns: [3, 1], ls: [2, 2], ms_combs: [-2, 2, -1, 1, 0, 0, 1, -1, 2, -2], ctildes: [0.13261004636095244, -0.13261004636095244, 0.13261004636095244, -0.13261004636095244, 0.13261004636095244]}
    - {mu0: 1, rank: 2, ndensity: 1, num_ms_combs: 5, mus: [0, 1], ns: [3, 2], ls: [2, 2], ms_combs: [-2, 2, -1, 1, 0, 0, 1, -1, 2, -2], ctildes: [-0.14838194890804307, 0.14838194890804307, -0.14838194890804307, 0.14838194890804307, -0.14838194890804307]}
    - {mu0: 1, rank: 2, ndensity: 1, num_ms_combs: 5, mus: [0, 0], ns: [3, 3], ls: [2, 2], ms_combs: [-2, 2, -1, 1, 0, 0, 1, -1, 2, -2], ctildes: [-0.07602742476180593, 0.07602742476180593, -0.07602742476180593, 0.07602742476180593, -0.07602742476180593]}
    - {mu0: 1, rank: 2, ndensity: 1, num_ms_combs: 5, mus: [0, 1], ns: [3, 3], ls: [2, 2], ms_combs: [-2, 2, -1, 1, 0, 0, 1, -1, 2, -2], ctildes: [-0.264163143222548, 0.264163143222548, -0.264163143222548, 0.264163143222548, -0.264163143222548]}
    - {mu0: 1, rank: 2, ndensity: 1, num_ms_combs: 5, mus: [1, 1], ns: [3, 3], ls: [2, 2], ms_combs: [-2, 2, -1, 1, 0, 0, 1, -1, 2, -2], ctildes: [0.21742204183153757, -0.21742204183153757, 0.21742204183153757, -0.21742204183153757, 0.21742204183153757]}
    - {mu0: 1, rank: 3, ndensity: 1, num_ms_combs: 9, mus: [0, 0, 0], ns: [1, 1, 1], ls: [1, 1, 2], ms_combs: [-1, -1, 2, -1, 0, 1, -1, 1, 0, 0, -1, 1, 0, 0, 0, 0, 1, -1, 1, -1, 0, 1, 0, -1, 1, 1, -2], ctildes: [0.0513614473532071, -0.036318027905751164, 0.020968224685679854, -0.036318027905751164, 0.04193644937135971, -0.036318027905751164, 0.020968224685679854, -0.036318027905751164, 0.0513614473532071]}
    - {mu0: 1, rank: 3, ndensity: 1, num_ms_combs: 9, mus: [0, 0, 1], ns: [1, 1, 1], ls: [1, 1, 2], ms_combs: [-1, -1, 2, -1, 0, 1, -1, 1, 0, 0, -1, 1, 0, 0, 0, 0, 1, -1, 1, -1, 0, 1, 0, -1, 1, 1, -2], ctildes: [-0.13143560270658158, 0.09293900645128116, -0.053658364225930746, 0.09293900645128116, -0.10731672845186149, 0.09293900645128116, -0.053658364225930746, 0.09293900645128116, -0.13143560270658158]}
    - {mu0: 1, rank: 3, ndensity: 1, num_ms_combs: 9, mus: [0, 1, 1], ns: [1, 1, 1], ls: [1, 1, 2], ms_combs: [-1, -1, 2, -1, 0, 1, -1, 1, 0, 0, -1, 1, 0, 0, 0, 0, 1, -1, 1, -1, 0, 1, 0, -1, 1, 1, -2], ctildes: [-0.3472139987481708, 0.2455173743271882, -0.14174953228436238, 0.2455173743271882, -0.28349906456872476, 0.2455173743271882, -0.14174953228436238, 0.2455173743271882, -0.3472139987481708]}
    - {mu0: 1, rank: 3, ndensity: 1, num_ms_combs: 9, mus: [1, 1, 1], ns: [1, 1, 1], ls: [1, 1, 2], ms_combs: [-1, -1, 2, -1, 0, 1, -1, 1, 0, 0, -1, 1, 0, 0, 0, 0, 1, -1, 1, -1, 0, 1, 0, -1, 1, 1, -2], ctildes: [-0.023346209637318417, 0.016508263236252107, -0.009531050904150773, 0.016508263236252107, -0.019062101808301545, 0.016508263236252107, -0.009531050904150773, 0.016508263236252107, -0.023346209637318417]}
    - {mu0: 1, rank: 3, ndensity: 1, num_ms_combs: 9, mus: [0, 0, 0], ns: [1, 1, 2], ls: [1, 1, 2], ms_combs: [-1, -1, 2, -1, 0, 1, -1, 1, 0, 0, -1, 1, 0, 0, 0, 0, 1, -1, 1, -1, 0, 1, 0, -1, 1, 1, -2], ctildes: [0.013835743274879214, -0.009783347943805483, 0.005648418972424777, -0.009783347943805483, 0.011296837944849553, -0.009783347943805483, 0.005648418972424777, -0.009783347943805483, 0.013835743274879214]}
    - {mu0: 1, rank: 3, ndensity: 1, num_ms_combs: 9, mus: [0, 0, 1], ns: [1, 1, 2], ls: [1, 1, 2], ms_combs: [-1, -1, 2, -1, 0, 1, -1, 1, 0, 0, -1, 1, 0, 0, 0, 0, 1, -1, 1, -1, 0, 1, 0, -1, 1, 1, -2], ctildes: [0.34866116787518564, -0.24654067743579858, 0.14234033665178508, -0.24654067743579858, 0.28468067330357016, -0.24654067743579858, 0.14234033665178508, -0.24654067743579858, 0.34866116787518564]}
    - {mu0: 1, rank: 3, ndensity: 1, num_ms_combs: 9, mus: [0, 1, 1], ns: [1, 1, 2], ls: [1, 1, 2], ms_combs: [-1, -1, 2, -1, 0, 1, -1, 1, 0, 0, -1, 1, 0, 0, 0, 0, 1, -1, 1, -1, 0, 1, 0, -1, 1, 1, -2], ctildes: [-0.16231828400189457, 0.11477635993110988, -0.06626616703653303, 0.11477635993110988, -0.13253233407306605, 0.11477635993110988, -0.06626616703653303, 0.11477635993110988, -0.16231828400189457]}
    - {mu0: 1, rank: 3, ndensity: 1, num_ms_combs: 9, mus: [1, 1, 1], ns: [1, 1, 2], ls: [1, 1, 2], ms_combs: [-1, -1, 2, -1, 0, 1, -1, 1, 0, 0, -1, 1, 0, 0, 0, 0, 1, -1, 1, -1, 0, 1, 0, -1, 1, 1, -2], ctildes: [-0.4330085389936984, 0.3061832758422007, -0.17677500935671936, 0.3061832758422007, -0.3535500187134387, 0.3061832758422007, -0.17677500935671936, 0.3061832758422007, -0.4330085389936984]}
    - {mu0: 1, rank: 3, ndensity: 1, num_ms_combs: 9, mus: [0, 0, 0], ns: [1, 2, 1], ls: [1, 1, 2], ms_combs: [-1, -1, 2, -1, 0, 1, -1, 1, 0, 0, -1, 1, 0, 0, 0, 0, 1, -1, 1, -1, 0, 1, 0, -1, 1, 1, -2], ctildes: [0.044190230624421886, -0.031247211900836756, 0.01804058749109668, -0.031247211900836756, 0.03608117498219336, -0.031247211900836756, 0.01804058749109668, -0.031247211900836756, 0.044190230624421886]}
    - {mu0: 1, rank: 3, ndensity: 1, num_ms_combs: 9, mus: [0, 0, 1], ns: [1, 2, 1], ls: [1, 1, 2], ms_combs: [-1, -1, 2, -1, 0, 1, -1, 1, 0, 0, -1, 1, 0, 0, 0, 0, 1, -1, 1, -1, 0, 1, 0, -1, 1, 1, -2], ctildes: [-0.44557662017567934, 0.31507025131915695, -0.1819059074071456, 0.31507025131915695, -0.3638118148142912, 0.31507025131915695, -0.1819059074071456, 0.31507025131915695, -0.44557662017567934]}
    - {mu0: 1, rank: 3, ndensity: 1, num_ms_combs: 9, mus: [0, 1, 1], ns: [1, 2, 1], ls: [1, 1, 2], ms_combs: [-1, -1, 2, -1, 0, 1, -1, 1, 0, 0, -1, 1, 0, 0, 0, 0, 1, -1, 1, -1, 0, 1, 0, -1, 1, 1, -2], ctildes: [-0.01830799907619785, 0.012945710364727518, -0.007474209897844031, 0.012945710364727518, -0.014948419795688062, 0.012945710364727518, -0.007474209897844031, 0.012945710364727518, -0.01830799907619785]}
    - {mu0: 1, rank: 3, ndensity: 1, num_ms_combs: 9, mus: [1, 1, 1], ns: [1, 2, 1], ls: [1, 1, 2], ms_combs: [-1, -1, 2, -1, 0, 1, -1, 1, 0, 0, -1, 1, 0, 0, 0, 0, 1, -1, 1, -1, 0, 1, 0, -1, 1, 1, -2], ctildes: [-0.006764491578280728, 0.004783217891403092, -0.002761592334467629, 0.004783217891403092, -0.005523184668935258, 0.004783217891403092, -0.002761592334467629, 0.004783217891403092, -0.006764491578280728]}
    - {mu0: 1, rank: 3, ndensity: 1, num_ms_combs: 9, mus: [0, 0, 0], ns: [1, 2, 2], ls: [1, 1, 2], ms_combs: [-1, -1, 2, -1, 0, 1, -1, 1, 0, 0, -1, 1, 0, 0, 0, 0, 1, -1, 1, -1, 0, 1, 0, -1, 1, 1, -2], ctildes: [0.01335687295011274, -0.00944473548807571, 0.0054529209659928985, -0.00944473548807571, 0.010905841931985797, -0.00944473548807571, 0.0054529209659928985, -0.00944473548807571, 0.01335687295011274]}
    - {mu0: 1, rank: 3, ndensity: 1, num_ms_combs: 9, mus: [0, 0, 1], ns: [1, 2, 2], ls: [1, 1, 2], ms_combs: [-1, -1, 2, -1, 0, 1, -1, 1, 0, 0, -1, 1, 0, 0, 0, 0, 1, -1, 1, -1, 0, 1, 0, -1, 1, 1, -2], ctildes: [-0.08323680693439735, 0.058857310936746864, -0.0339812867405501, 0.058857310936746864, -0.0679625734811002, 0.058857310936746864, -0.0339812867405501, 0.058857310936746864, -0.08323680693439735]}
    - {mu0: 1, rank: 3, ndensity: 1, num_ms_combs: 9, mus: [0, 1, 1], ns: [1, 2, 2], ls: [1, 1, 2], ms_combs: [-1, -1, 2, -1, 0, 1, -1, 1, 0, 0, -1, 1, 0, 0, 0, 0, 1, -1, 1, -1, 0, 1, 0, -1, 1, 1, -2], ctildes: [-0.08449038319336281, 0.059743723214851246, -0.0344930571444848, 0.059743723214851246, -0.0689861142889696, 0.059743723214851246, -0.0344930571444848, 0.059743723214851246, -0.08449038319336281]}
    - {mu0: 1, rank: 3, ndensity: 1, num_ms_combs: 9, mus: [1, 1, 1], ns: [1, 2, 2], ls: [1, 1, 2], ms_combs: [-1, -1, 2, -1, 0, 1, -1, 1, 0, 0, -1, 1, 0, 0, 0, 0, 1, -1, 1, -1, 0, 1, 0, -1, 1, 1, -2], ctildes: [-0.06652552868174381, 0.04704065269993909, -0.02715893543925495, 0.04704065269993909, -0.0543178708785099, 0.04704065269993909, -0.02715893543925495, 0.04704065269993909, -0.06652552868174381]}
    - {mu0: 1, rank: 3, ndensity: 1, num_ms_combs: 9, mus: [0, 1, 1], ns: [2, 1, 1], ls: [1, 1, 2], ms_combs: [-1, -1, 2, -1, 0, 1, -1, 1, 0, 0, -1, 1, 0, 0, 0, 0, 1, -1, 1, -1, 0, 1, 0, -1, 1, 1, -2], ctildes: [-0.08678232588804266, 0.061364371444861995, -0.03542873890318331, 0.061364371444861995, -0.07085747780636661, 0.061364371444861995, -0.03542873890318331, 0.061364371444861995, -0.08678232588804266]}
    - {mu0: 1, rank: 3, ndensity: 1, num_ms_combs: 9, mus: [0, 1, 1], ns: [2, 1, 2], ls: [1, 1, 2], ms_combs: [-1, -1, 2, -1, 0, 1, -1, 1, 0, 0, -1, 1, 0, 0, 0, 0, 1, -1, 1, -1, 0, 1, 0, -1, 1, 1, -2], ctildes: [-0.021132614709813955, 0.014943015243992865, -0.008627354489916129, 0.014943015243992865, -0.017254708979832258, 0.014943015243992865, -0.008627354489916129, 0.014943015243992865, -0.021132614709813955]}
    - {mu0: 1, rank: 3, ndensity: 1, num_ms_combs: 9, mus: [0, 0, 0], ns: [2, 2, 1], ls: [1, 1, 2], ms_combs: [-1, -1, 2, -1, 0, 1, -1, 1, 0, 0, -1, 1, 0, 0, 0, 0, 1, -1, 1, -1, 0, 1, 0, -1, 1, 1, -2], ctildes: [-0.025727612608259974, 0.018192169434586562, -0.010503254670498298, 0.018192169434586562, -0.021006509340996595, 0.018192169434586562, -0.010503254670498298, 0.018192169434586562, -0.025727612608259974]}
    - {mu0: 1, rank: 3, ndensity: 1, num_ms_combs: 9, mus: [0, 0, 1], ns: [2, 2, 1], ls: [1, 1, 2], ms_combs: [-1, -1, 2, -1, 0, 1, -1, 1, 0, 0, -1, 1, 0, 0, 0, 0, 1, -1, 1, -1, 0, 1, 0, -1, 1, 1, -2], ctildes: [-0.10306538397033452, 0.07287823229377587, -0.04207627003857978, 0.07287823229377587, -0.08415254007715955, 0.07287823229377587, -0.04207627003857978, 0.07287823229377587, -0.10306538397033452]}
    - {mu0: 1, rank: 3, ndensity: 1, num_ms_combs: 9, mus: [0, 1, 1], ns: [2, 2, 1], ls: [1, 1, 2], ms_combs: [-1, -1, 2, -1, 0, 1, -1, 1, 0, 0, -1, 1, 0, 0, 0, 0, 1, -1, 1, -1, 0, 1, 0, -1, 1, 1, -2], ctildes: [4.281960546429489, -3.027803355055593, 1.7481032069697633, -3.027803355055593, 3.4962064139395266, -3.027803355055593, 1.7481032069697633, -3.027803355055593, 4.281960546429489]}
    - {mu0: 1, rank: 3, ndensity: 1, num_ms_combs: 9, mus: [1, 1, 1], ns: [2, 2, 1], ls: [1, 1, 2], ms_combs: [-1, -1, 2, -1, 0, 1, -1, 1, 0, 0, -1, 1, 0, 0, 0, 0, 1, -1, 1, -1, 0, 1, 0, -1, 1, 1, -2], ctildes: [0.0062651910842229765, -0.004430159124350795, 0.0025577537457090868, -0.004430159124350795, 0.0051155074914181736, -0.004430159124350795, 0.0025577537457090868, -0.004430159124350795, 0.0062651910842229765]}
